{"learner":{"attributes":{"best_iteration":"119","best_score":"4.608106973831873"},"feature_names":[],"feature_types":[],"gradient_booster":{"model":{"cats":{"enc":[],"feature_segments":[],"sorted_idx":[]},"gbtree_model_param":{"num_parallel_tree":"1","num_trees":"180"},"iteration_indptr":[0,1,2,3,4,5,6,7,8,9,10,11,12,13,14,15,16,17,18,19,20,21,22,23,24,25,26,27,28,29,30,31,32,33,34,35,36,37,38,39,40,41,42,43,44,45,46,47,48,49,50,51,52,53,54,55,56,57,58,59,60,61,62,63,64,65,66,67,68,69,70,71,72,73,74,75,76,77,78,79,80,81,82,83,84,85,86,87,88,89,90,91,92,93,94,95,96,97,98,99,100,101,102,103,104,105,106,107,108,109,110,111,112,113,114,115,116,117,118,119,120,121,122,123,124,125,126,127,128,129,130,131,132,133,134,135,136,137,138,139,140,141,142,143,144,145,146,147,148,149,150,151,152,153,154,155,156,157,158,159,160,161,162,163,164,165,166,167,168,169,170,171,172,173,174,175,176,177,178,179,180],"tree_info":[0,0,0,0,0,0,0,0,0,0,0,0,0,0,0,0,0,0,0,0,0,0,0,0,0,0,0,0,0,0,0,0,0,0,0,0,0,0,0,0,0,0,0,0,0,0,0,0,0,0,0,0,0,0,0,0,0,0,0,0,0,0,0,0,0,0,0,0,0,0,0,0,0,0,0,0,0,0,0,0,0,0,0,0,0,0,0,0,0,0,0,0,0,0,0,0,0,0,0,0,0,0,0,0,0,0,0,0,0,0,0,0,0,0,0,0,0,0,0,0,0,0,0,0,0,0,0,0,0,0,0,0,0,0,0,0,0,0,0,0,0,0,0,0,0,0,0,0,0,0,0,0,0,0,0,0,0,0,0,0,0,0,0,0,0,0,0,0,0,0,0,0,0,0,0,0,0,0,0,0],"trees":[{"base_weights":[-2.1148108E-2,-2.0095658E0,1.6444061E1,-4.594179E0,2.2200892E0,1.0148177E1,2.2652752E1,-5.7764926E0,-2.8116868E0,5.152452E-1,3.6854906E0,5.625901E0,1.4098899E1,1.8440762E1,2.9426096E1,-5.8124933E0,1.4073098E1,-1.9801337E0,-4.4907193E0,-8.08509E-1,1.4839642E0,6.567006E-1,5.0048904E0,3.821314E0,1.7044851E1,1.1078672E1,1.9753357E1,2.1352417E1,9.952838E0,3.294338E1,2.1330673E1,-7.2114544E0,-5.451892E0,1.6319617E0,-1.4976786E-1,-2.8389268E0,-9.718051E-1,-4.97232E0,-2.686829E0,-7.001492E-2,-5.6484513E0,2.1723313E0,-7.7112526E-1,1.4471825E0,-3.6660538E0,1.8256447E0,6.4660683E0,4.9138255E0,-2.0632384E0,2.7303406E1,9.965331E0,1.6959476E1,9.125993E0,2.0952265E1,-2.2694018E0,1.6961245E1,2.5635973E1,1.2023302E1,-5.665821E-1,-1.7383815E-3,3.3331764E1,2.2607248E1,-2.3750236E0,-8.429185E0,-6.94502E0,-5.0963016E0,-6.2569404E0,-1.9383152E-1,-3.191972E0,-3.0062754E0,-3.2028076E-1,-4.561741E0,-7.0316224E0,2.3285982E-1,-3.1414578E0,8.228131E-1,-1.2956986E0,1.528116E-1,-5.8703556E0,2.2329612E-1,2.614143E0,-1.6852528E0,8.44663E-1,-1.7215665E-1,2.867851E0,-6.4742035E-1,-5.6268E0,2.491064E0,-5.0930114E0,7.7593265E0,2.5085046E0,-3.1905565E-1,5.485242E0,1.0963017E0,-3.9469972E0,1.4722128E0,3.079366E-1,1.8286837E0,1.58392315E1,7.315781E0,1.982567E1,1.210619E1,6.8170595E0,1.6322216E1,2.5164734E1,2.49866E-2,-1.679512E-1,1.9831299E1,1.2786566E1,4.165348E0,2.6461267E1,2.8861125E0,1.3321728E1,-2.949613E0,2.4063716E0,3.4007942E1,1.5711372E1,1.5265967E1,2.6107727E1,3.6536623E-2,-2.1466339E-1,-4.2755395E-1,-4.6339034E-4,-3.2770622E-1,-3.8638198E-1,-5.358783E0,-4.688722E0,-2.58564E-1,-6.501857E0,-1.4455187E0,1.2435907E0,-5.0190554E0,-2.8086033E0,-3.9936588E0,-2.7321315E0,3.1803998E-1,-1.3588508E0,-4.9959307E0,-3.3368623E0,-2.1176517E0,-3.6327025E-1,-3.9380205E-1,2.094866E-1,-3.8872104E0,-1.5111237E0,1.4948651E-1,1.9033573E0,-8.0495733E-1,-3.3155172E0,-3.275816E-1,-4.1816726E0,5.533366E-1,-5.404779E-2,9.8519295E-1,2.9990344E0,-1.1358589E0,-5.6371818E0,-4.1269016E0,1.2678096E0,-8.955037E-1,2.9226003E0,4.5197496E0,1.6429482E0,8.8100916E-1,-2.2559416E0,-2.617182E0,-6.690686E0,5.038949E0,1.4971141E0,-6.3943086E0,2.6399884E-1,6.331918E0,1.021881E1,3.1995404E0,-7.632633E-1,1.13011055E1,4.30061E0,-1.1790304E0,3.0199882E-1,-5.6661425E0,-7.104463E-1,3.0287204E0,-1.342884E-1,1.760597E1,8.680153E-2,6.681986E-1,-2.0734017E0,1.0509609E0,2.8289884E-1,9.564114E0,8.408505E-1,-8.2045086E-2,7.357355E0,1.3005879E1,1.1908205E0,2.6251293E1,3.6798218E-1,1.4153833E1,2.193874E1,5.996918E0,1.49061775E1,-2.2063399E-2,2.923988E-1,3.4487993E-1,2.7201172E1,-1.5406903E0,4.9649715E0,-2.4218838E-1,1.3911709E1,-2.5337008E-1,8.5730934E-1,2.8361607E-2,1.3621742E-1,4.721616E-1,3.419696E1,1.0440301E0,-1.2413839E-1,5.8470316E0,2.2776657E1,1.1618972E1,2.8314205E1,-1.9829504E-1,-2.7505597E-1,-2.1673548E-1,-2.5497887E-1,-3.361065E-1,-2.8821188E-1,-1.4209707E-1,-3.40801E-2,-5.6687225E-2,9.7174436E-2,-2.541257E-1,-9.663391E-3,-2.3411684E-1,-1.2390647E-1,-4.108839E-2,-2.0586748E-1,-7.617198E-2,-1.4881757E-1,2.442663E-2,-8.312511E-2,-1.3515486E-1,-3.473248E-2,-2.052538E-1,-3.8804358E-1,-2.2289686E-1,-1.19347945E-1,-1.3221785E-1,-1.34383915E-2,-1.5652527E-3,-7.9584524E-2,-9.379395E-2,-2.1909396E-1,2.192866E-1,-9.459801E-2,6.381603E-2,-2.2797717E-2,1.0393051E-2,1.20013E-1,-1.5484044E-1,-1.7606128E-2,-1.934065E-1,5.5267412E-2,8.2167424E-2,-2.7281165E-1,-2.9227873E-2,1.3421375E-1,1.0739767E-2,1.7377803E-1,2.0395164E-1,1.10752046E-1,-7.3131057E-3,-9.1487534E-2,-1.8138384E-2,-3.0914602E-1,-2.3786786E-1,-5.5888392E-2,1.6219835E-1,2.2545243E-2,2.1478176E-1,-6.702021E-2,1.9501308E-1,-9.818142E-2,1.4033924E-1,3.2123244E-1,1.0280465E-1,-1.1519046E-1,-5.7034522E-2,6.9970906E-2,-2.6851434E-2,-1.5807296E-1,-2.879345E-1,-5.5598434E-2,-1.4138388E-2,-3.4845513E-1,1.8458577E-1,4.745287E-1,1.22938074E-1,-6.773924E-2,-3.381596E-1,1.5361619E-2,2.860986E-1,4.3713275E-1,3.147834E-1,5.8453727E-1,6.2748656E-2,2.1250036E-1,-9.5549315E-2,2.7265492E-1,1.02068566E-1,6.900466E-1,9.8457485E-2,4.6890002E-1,-1.6250142E-1,1.3328215E-1,-3.0284843E-1,-6.348839E-2,7.1929924E-2,-1.669512E-1,1.6826858E-1,3.363662E-2,1.0047187E0,3.794988E-1,-2.6195118E-1,1.8558662E-1,3.6060783E-1,7.626842E-1,4.1178313E-1,2.6691917E-1,7.4181265E-1,-2.0710118E-1,1.722616E-1,1.3512863E0,1.8073662E-1,7.324216E-1,4.649655E-1,1.124488E0,4.454777E-1,6.511858E-2,7.748163E-1,3.8116218E-3,1.5038277E0,1.1306773E0,9.336615E-3,-1.2488838E-1,1.1866093E-3,3.0971742E-1,9.0758514E-1,4.7065306E-1,-1.0293839E-1,1.672366E-1,8.501049E-1,1.7323042E0,6.060299E-1,-1.7061425E-2,4.8956546E-1,1.273661E0,1.1198216E-1,8.5626554E-1,5.525674E-1,1.5288692E0],"categories":[],"categories_nodes":[],"categories_segments":[],"categories_sizes":[],"default_left":[0,0,0,0,0,0,0,0,0,0,0,0,0,0,0,0,0,0,0,0,0,0,0,0,0,0,0,0,0,0,0,0,0,0,0,0,0,0,0,0,0,0,0,0,0,0,0,0,0,0,0,0,0,0,0,0,0,0,0,0,0,0,0,0,0,0,0,0,0,0,0,0,0,0,0,0,0,0,0,0,0,0,0,0,0,0,0,0,0,0,0,0,0,0,0,0,0,0,0,0,0,0,0,0,0,0,0,0,0,0,0,0,0,0,0,0,0,0,0,0,0,0,0,0,0,0,0,0,0,0,0,0,0,0,0,0,0,0,0,0,0,0,0,0,0,0,0,0,0,0,0,0,0,0,0,0,0,0,0,0,0,0,0,0,0,0,0,0,0,0,0,0,0,0,0,0,0,0,0,0,0,0,0,0,0,0,0,0,0,0,0,0,0,0,0,0,0,0,0,0,0,0,0,0,0,0,0,0,0,0,0,0,0,0,0,0,0,0,0,0,0,0,0,0,0,0,0,0,0,0,0,0,0,0,0,0,0,0,0,0,0,0,0,0,0,0,0,0,0,0,0,0,0,0,0,0,0,0,0,0,0,0,0,0,0,0,0,0,0,0,0,0,0,0,0,0,0,0,0,0,0,0,0,0,0,0,0,0,0,0,0,0,0,0,0,0,0,0,0,0,0,0,0,0,0,0,0,0,0,0,0,0,0,0,0,0,0,0,0,0,0,0,0,0,0,0,0,0,0,0,0,0,0,0,0,0,0,0,0,0,0,0,0,0,0,0,0,0,0,0,0,0,0,0,0,0,0,0,0,0,0],"id":0,"left_children":[1,3,5,7,9,11,13,15,17,19,21,23,25,27,29,31,33,35,37,39,41,43,45,47,49,51,53,55,57,59,61,63,65,-1,-1,67,69,71,73,75,77,79,81,83,85,87,89,91,93,95,97,99,101,103,105,107,109,111,113,-1,115,117,119,121,123,125,127,129,131,133,135,137,139,141,143,145,147,-1,149,151,153,155,157,159,161,163,165,167,169,171,173,-1,175,177,179,-1,-1,181,183,185,187,189,191,193,195,-1,-1,197,199,201,203,205,207,209,211,213,215,217,219,-1,-1,-1,-1,-1,-1,221,223,-1,225,227,229,231,233,235,237,239,241,243,245,247,-1,249,-1,251,253,255,257,259,261,-1,263,-1,265,267,269,271,273,275,277,279,281,283,285,287,289,291,293,295,297,299,-1,301,303,305,307,309,311,313,-1,315,317,319,-1,321,-1,-1,323,-1,-1,325,-1,-1,327,329,-1,331,-1,333,335,337,339,-1,-1,-1,341,343,345,-1,347,-1,349,-1,-1,-1,351,-1,-1,353,355,357,359,-1,-1,-1,-1,-1,-1,-1,-1,-1,-1,-1,-1,-1,-1,-1,-1,-1,-1,-1,-1,-1,-1,-1,-1,-1,-1,-1,-1,-1,-1,-1,-1,-1,-1,-1,-1,-1,-1,-1,-1,-1,-1,-1,-1,-1,-1,-1,-1,-1,-1,-1,-1,-1,-1,-1,-1,-1,-1,-1,-1,-1,-1,-1,-1,-1,-1,-1,-1,-1,-1,-1,-1,-1,-1,-1,-1,-1,-1,-1,-1,-1,-1,-1,-1,-1,-1,-1,-1,-1,-1,-1,-1,-1,-1,-1,-1,-1,-1,-1,-1,-1,-1,-1,-1,-1,-1,-1,-1,-1,-1,-1,-1,-1,-1,-1,-1,-1,-1,-1,-1,-1,-1,-1,-1,-1,-1,-1,-1,-1,-1,-1,-1,-1,-1,-1,-1,-1,-1,-1,-1],"loss_changes":[2.0144777E5,6.0027E4,2.568625E4,7.166E3,5.2020195E3,5.83441E3,8.957609E3,1.5453047E3,1.8913428E3,1.2373811E3,4.4724404E3,3.1494795E3,2.7868398E3,4.9279766E3,2.8850078E3,9.923203E2,1.3653469E3,7.869834E2,3.7758008E2,1.4579062E3,8.6632263E2,1.1705226E3,3.6116426E3,8.844745E2,1.2530513E3,1.1887764E3,1.6317441E3,2.4618984E3,1.2047163E3,1.1026719E3,1.2944375E3,7.6427734E1,4.3472656E2,0E0,0E0,4.5883008E2,5.5707556E2,2.6723242E2,1.2948676E2,3.8955142E2,1.222478E2,3.67109E2,1.9491527E2,6.65351E2,3.1005212E2,1.1498274E3,2.713629E3,7.7722485E2,1.3526697E2,1.8080127E2,6.401489E2,6.2889844E2,5.3676807E2,7.009785E2,1.37478485E1,6.9296875E2,1.2364688E3,5.0729443E2,7.7944275E1,0E0,4.7842188E2,6.036621E2,2.1010025E1,7.176416E1,5.5507812E1,9.640625E1,9.799805E1,1.07950615E2,2.8989746E2,1.669873E1,2.1257321E2,1.4181494E2,5.0095947E1,3.6364616E1,9.625537E1,1.4959267E2,1.4601234E2,0E0,3.3577637E1,2.4118701E2,2.1523047E2,1.7597487E2,1.06209755E2,3.0706454E2,3.0418018E2,5.6074753E1,8.494977E1,5.6479443E2,3.307254E2,1.3465938E3,3.0314282E2,0E0,7.09261E2,1.08357834E2,7.387195E1,0E0,0E0,4.605699E1,1.6876892E2,4.8200937E2,2.3618066E2,2.942202E2,2.5427197E2,4.3584473E2,3.484961E2,0E0,0E0,2.279043E2,4.143086E2,3.358542E1,8.690742E2,7.206839E1,4.9607715E2,5.271787E1,1.3786812E0,5.3164062E1,5.2208984E2,9.279646E2,4.702461E2,0E0,0E0,0E0,0E0,0E0,0E0,1.13791016E2,4.3782227E1,0E0,2.6242188E1,3.219895E1,4.87924E1,2.1679688E1,2.1193506E2,4.4631653E0,1.9966125E1,6.8008064E1,1.0705E2,5.0511035E2,7.5617065E1,3.1845493E0,0E0,5.595174E0,0E0,4.8491943E1,7.11783E1,8.790757E1,6.605832E1,1.2552481E2,7.5123505E1,0E0,1.4260464E2,0E0,1.1633295E2,1.2971643E2,2.2889087E2,5.1232857E1,2.6541565E1,2.270874E0,7.1182236E1,2.6211682E2,1.3186263E2,1.9406409E2,1.5148923E2,1.417311E1,1.5423775E1,4.0882927E1,3.9062866E1,3.4279834E2,4.5310452E2,5.151947E1,0E0,3.2787305E2,7.694922E2,2.1936377E2,1.8165266E2,3.8848608E2,1.0824423E3,6.439959E1,0E0,7.7729797E0,3.8697098E1,2.4948769E0,0E0,2.1950928E1,0E0,0E0,9.270005E1,0E0,0E0,2.5129199E2,0E0,0E0,4.469873E1,7.83355E2,0E0,3.660957E2,0E0,2.5239258E1,6.7617188E0,1.251315E2,2.2636768E2,0E0,0E0,0E0,2.4324219E2,5.4262447E0,3.0226227E1,0E0,5.730327E2,0E0,2.8646576E1,0E0,0E0,0E0,2.8757812E1,0E0,0E0,3.1471567E2,3.071045E1,2.1987427E2,4.825254E2,0E0,0E0,0E0,0E0,0E0,0E0,0E0,0E0,0E0,0E0,0E0,0E0,0E0,0E0,0E0,0E0,0E0,0E0,0E0,0E0,0E0,0E0,0E0,0E0,0E0,0E0,0E0,0E0,0E0,0E0,0E0,0E0,0E0,0E0,0E0,0E0,0E0,0E0,0E0,0E0,0E0,0E0,0E0,0E0,0E0,0E0,0E0,0E0,0E0,0E0,0E0,0E0,0E0,0E0,0E0,0E0,0E0,0E0,0E0,0E0,0E0,0E0,0E0,0E0,0E0,0E0,0E0,0E0,0E0,0E0,0E0,0E0,0E0,0E0,0E0,0E0,0E0,0E0,0E0,0E0,0E0,0E0,0E0,0E0,0E0,0E0,0E0,0E0,0E0,0E0,0E0,0E0,0E0,0E0,0E0,0E0,0E0,0E0,0E0,0E0,0E0,0E0,0E0,0E0,0E0,0E0,0E0,0E0,0E0,0E0,0E0,0E0,0E0,0E0,0E0,0E0,0E0,0E0,0E0,0E0,0E0,0E0,0E0,0E0,0E0,0E0,0E0,0E0,0E0,0E0,0E0,0E0,0E0,0E0,0E0,0E0,0E0,0E0,0E0,0E0],"parents":[2147483647,0,0,1,1,2,2,3,3,4,4,5,5,6,6,7,7,8,8,9,9,10,10,11,11,12,12,13,13,14,14,15,15,16,16,17,17,18,18,19,19,20,20,21,21,22,22,23,23,24,24,25,25,26,26,27,27,28,28,29,29,30,30,31,31,32,32,35,35,36,36,37,37,38,38,39,39,40,40,41,41,42,42,43,43,44,44,45,45,46,46,47,47,48,48,49,49,50,50,51,51,52,52,53,53,54,54,55,55,56,56,57,57,58,58,60,60,61,61,62,62,63,63,64,64,65,65,66,66,67,67,68,68,69,69,70,70,71,71,72,72,73,73,74,74,75,75,76,76,78,78,79,79,80,80,81,81,82,82,83,83,84,84,85,85,86,86,87,87,88,88,89,89,90,90,92,92,93,93,94,94,97,97,98,98,99,99,100,100,101,101,102,102,103,103,104,104,107,107,108,108,109,109,110,110,111,111,112,112,113,113,114,114,115,115,116,116,117,117,118,118,125,125,126,126,128,128,129,129,130,130,131,131,132,132,133,133,134,134,135,135,136,136,137,137,138,138,139,139,141,141,143,143,144,144,145,145,146,146,147,147,148,148,150,150,152,152,153,153,154,154,155,155,156,156,157,157,158,158,159,159,160,160,161,161,162,162,163,163,164,164,165,165,166,166,167,167,168,168,169,169,171,171,172,172,173,173,174,174,175,175,176,176,177,177,179,179,180,180,181,181,183,183,186,186,189,189,192,192,193,193,195,195,197,197,198,198,199,199,200,200,204,204,205,205,206,206,208,208,210,210,214,214,217,217,218,218,219,219,220,220],"right_children":[2,4,6,8,10,12,14,16,18,20,22,24,26,28,30,32,34,36,38,40,42,44,46,48,50,52,54,56,58,60,62,64,66,-1,-1,68,70,72,74,76,78,80,82,84,86,88,90,92,94,96,98,100,102,104,106,108,110,112,114,-1,116,118,120,122,124,126,128,130,132,134,136,138,140,142,144,146,148,-1,150,152,154,156,158,160,162,164,166,168,170,172,174,-1,176,178,180,-1,-1,182,184,186,188,190,192,194,196,-1,-1,198,200,202,204,206,208,210,212,214,216,218,220,-1,-1,-1,-1,-1,-1,222,224,-1,226,228,230,232,234,236,238,240,242,244,246,248,-1,250,-1,252,254,256,258,260,262,-1,264,-1,266,268,270,272,274,276,278,280,282,284,286,288,290,292,294,296,298,300,-1,302,304,306,308,310,312,314,-1,316,318,320,-1,322,-1,-1,324,-1,-1,326,-1,-1,328,330,-1,332,-1,334,336,338,340,-1,-1,-1,342,344,346,-1,348,-1,350,-1,-1,-1,352,-1,-1,354,356,358,360,-1,-1,-1,-1,-1,-1,-1,-1,-1,-1,-1,-1,-1,-1,-1,-1,-1,-1,-1,-1,-1,-1,-1,-1,-1,-1,-1,-1,-1,-1,-1,-1,-1,-1,-1,-1,-1,-1,-1,-1,-1,-1,-1,-1,-1,-1,-1,-1,-1,-1,-1,-1,-1,-1,-1,-1,-1,-1,-1,-1,-1,-1,-1,-1,-1,-1,-1,-1,-1,-1,-1,-1,-1,-1,-1,-1,-1,-1,-1,-1,-1,-1,-1,-1,-1,-1,-1,-1,-1,-1,-1,-1,-1,-1,-1,-1,-1,-1,-1,-1,-1,-1,-1,-1,-1,-1,-1,-1,-1,-1,-1,-1,-1,-1,-1,-1,-1,-1,-1,-1,-1,-1,-1,-1,-1,-1,-1,-1,-1,-1,-1,-1,-1,-1,-1,-1,-1,-1,-1,-1],"split_conditions":[1.0142803E0,-1.4893991E-1,9.631853E-1,-5.3668E-1,2.3880018E-1,-7.414685E-2,2.9529808E0,2.6229167E0,3.0067548E-1,-3.4681702E-1,7.773289E-2,3.3279617E0,1.9836305E0,4.6173078E-1,5.261529E-1,-8.094592E-1,-7.3055005E-1,-3.5277598E-2,7.435404E-1,4.3886942E-1,7.9028356E-1,8.7564284E-1,-2.8754088E-1,9.9643433E-1,-9.5188165E-1,-7.461838E-1,2.3213825E0,1.3417108E0,1.9649518E0,-4.0199094E0,2.5661864E0,-9.454873E-1,3.650976E-1,1.6319617E0,-1.4976786E-1,-1.228641E0,-5.54256E-1,2.244076E0,9.8753744E-1,-1.606656E-2,-1.3034351E0,-2.4428052E-1,2.5830117E-1,-1.3388547E-1,1.633968E-2,1.4909805E0,7.6773584E-1,-1.3189454E0,-9.231131E-2,-4.357312E-1,3.5998926E-1,1.8074048E-1,8.5056067E-1,6.549495E-1,2.5264666E0,-5.752505E-1,-1.9409169E0,1.0995204E0,1.2328781E0,-1.7383815E-3,1.3073066E0,4.501766E-1,3.922331E0,3.773468E0,2.8993848E-1,-1.3388547E-1,-1.265597E0,-4.447113E-1,-5.8435076E-1,-6.842652E-1,-3.4139824E-1,9.18263E-2,-7.6924103E-1,-4.78519E-1,-4.78519E-1,-6.231323E-1,1.3851144E0,1.528116E-1,1.4267321E0,-2.7415645E0,-7.5208104E-1,1.6801703E-1,-1.8698204E-1,7.5706375E-1,6.0752857E-1,-2.519752E-1,8.0313975E-1,-6.423626E-1,-8.565917E-1,3.174352E-1,2.1656957E0,-3.1905565E-1,-1.2774521E0,-4.0016553E-1,1.8232262E0,1.4722128E0,3.079366E-1,-3.7038818E-1,1.0659419E0,1.7481287E-1,9.157644E-1,-9.546788E-1,8.9205396E-1,-3.3004642E-1,1.4755315E0,2.49866E-2,-1.679512E-1,1.5958905E0,-7.5208104E-1,1.4020205E0,-1.3938733E0,-1.5305009E0,-5.662431E-1,-5.446119E-1,1.2663114E0,1.4909805E0,2.8787131E0,-1.1108369E0,-7.81465E-2,3.6536623E-2,-2.1466339E-1,-4.2755395E-1,-4.6339034E-4,-3.2770622E-1,-3.8638198E-1,-1.4612081E0,-3.1133458E-1,-2.58564E-1,1.7481287E-1,-2.155347E0,-2.1955488E0,1.127111E0,-1.4726771E0,9.475211E-3,-8.6965954E-1,1.0070572E0,-3.4961203E-1,2.0694947E-2,-4.78519E-1,-1.1108369E0,-3.6327025E-1,8.1228983E-1,2.094866E-1,6.066805E-1,-8.743745E-1,-9.8454565E-1,-7.6924103E-1,-6.8381405E-1,1.127111E0,-3.275816E-1,-1.2833798E0,5.533366E-1,-1.3230878E-2,1.4267321E0,-3.515984E-1,-5.446119E-1,1.1005834E0,6.2642187E-1,1.1005834E0,-1.4601955E0,4.6526587E-1,-1.5500314E0,6.791554E-1,-1.5977823E0,4.3881815E-2,-9.5188165E-1,4.3267024E-1,4.2065716E-1,3.5221317E-1,1.4267321E0,2.6399884E-1,1.0659419E0,3.0886027E-1,6.284293E-1,8.801987E-1,-9.5188165E-1,-3.883103E-1,4.2065716E-1,3.0199882E-1,-2.4012E-1,8.1228983E-1,-1.2451204E0,-1.342884E-1,-9.158678E-1,8.680153E-2,6.681986E-1,-1.8898643E0,1.0509609E0,2.8289884E-1,6.31239E-1,8.408505E-1,-8.2045086E-2,8.03168E-1,6.0752857E-1,1.1908205E0,1.19846E0,3.6798218E-1,-1.6509298E0,1.0461719E0,1.2663114E0,1.127111E0,-2.2063399E-2,2.923988E-1,3.4487993E-1,1.4788876E0,1.2081504E0,1.0046786E0,-2.4218838E-1,3.5998926E-1,-2.5337008E-1,2.3713706E0,2.8361607E-2,1.3621742E-1,4.721616E-1,-2.00147E0,1.0440301E0,-1.2413839E-1,-9.231131E-2,1.0659419E0,4.2065716E-1,-9.969125E-1,-1.9829504E-1,-2.7505597E-1,-2.1673548E-1,-2.5497887E-1,-3.361065E-1,-2.8821188E-1,-1.4209707E-1,-3.40801E-2,-5.6687225E-2,9.7174436E-2,-2.541257E-1,-9.663391E-3,-2.3411684E-1,-1.2390647E-1,-4.108839E-2,-2.0586748E-1,-7.617198E-2,-1.4881757E-1,2.442663E-2,-8.312511E-2,-1.3515486E-1,-3.473248E-2,-2.052538E-1,-3.8804358E-1,-2.2289686E-1,-1.19347945E-1,-1.3221785E-1,-1.34383915E-2,-1.5652527E-3,-7.9584524E-2,-9.379395E-2,-2.1909396E-1,2.192866E-1,-9.459801E-2,6.381603E-2,-2.2797717E-2,1.0393051E-2,1.20013E-1,-1.5484044E-1,-1.7606128E-2,-1.934065E-1,5.5267412E-2,8.2167424E-2,-2.7281165E-1,-2.9227873E-2,1.3421375E-1,1.0739767E-2,1.7377803E-1,2.0395164E-1,1.10752046E-1,-7.3131057E-3,-9.1487534E-2,-1.8138384E-2,-3.0914602E-1,-2.3786786E-1,-5.5888392E-2,1.6219835E-1,2.2545243E-2,2.1478176E-1,-6.702021E-2,1.9501308E-1,-9.818142E-2,1.4033924E-1,3.2123244E-1,1.0280465E-1,-1.1519046E-1,-5.7034522E-2,6.9970906E-2,-2.6851434E-2,-1.5807296E-1,-2.879345E-1,-5.5598434E-2,-1.4138388E-2,-3.4845513E-1,1.8458577E-1,4.745287E-1,1.22938074E-1,-6.773924E-2,-3.381596E-1,1.5361619E-2,2.860986E-1,4.3713275E-1,3.147834E-1,5.8453727E-1,6.2748656E-2,2.1250036E-1,-9.5549315E-2,2.7265492E-1,1.02068566E-1,6.900466E-1,9.8457485E-2,4.6890002E-1,-1.6250142E-1,1.3328215E-1,-3.0284843E-1,-6.348839E-2,7.1929924E-2,-1.669512E-1,1.6826858E-1,3.363662E-2,1.0047187E0,3.794988E-1,-2.6195118E-1,1.8558662E-1,3.6060783E-1,7.626842E-1,4.1178313E-1,2.6691917E-1,7.4181265E-1,-2.0710118E-1,1.722616E-1,1.3512863E0,1.8073662E-1,7.324216E-1,4.649655E-1,1.124488E0,4.454777E-1,6.511858E-2,7.748163E-1,3.8116218E-3,1.5038277E0,1.1306773E0,9.336615E-3,-1.2488838E-1,1.1866093E-3,3.0971742E-1,9.0758514E-1,4.7065306E-1,-1.0293839E-1,1.672366E-1,8.501049E-1,1.7323042E0,6.060299E-1,-1.7061425E-2,4.8956546E-1,1.273661E0,1.1198216E-1,8.5626554E-1,5.525674E-1,1.5288692E0],"split_indices":[0,0,2,0,0,2,0,2,12,2,3,3,0,12,12,3,0,9,1,3,12,12,2,12,10,12,12,3,2,10,12,3,12,0,0,12,3,12,1,12,12,3,3,9,3,3,12,2,6,2,6,2,2,2,0,12,10,2,11,0,9,9,0,4,12,9,2,3,3,3,12,2,1,0,0,9,12,0,1,10,9,3,9,10,2,2,2,1,2,9,12,0,2,2,3,0,0,12,4,2,2,1,2,1,1,0,0,0,9,0,1,10,9,6,0,3,7,1,11,0,0,0,0,0,0,2,12,0,2,9,9,10,9,9,12,1,3,2,0,1,0,6,0,12,2,12,1,9,10,0,2,0,0,1,12,6,12,1,12,12,2,1,12,10,10,10,0,10,12,1,0,4,3,9,2,10,2,10,0,2,6,9,0,2,0,0,9,0,0,2,0,0,12,2,0,3,0,9,2,0,10,0,0,0,2,0,2,0,6,0,0,0,0,0,10,0,0,6,4,10,6,0,0,0,0,0,0,0,0,0,0,0,0,0,0,0,0,0,0,0,0,0,0,0,0,0,0,0,0,0,0,0,0,0,0,0,0,0,0,0,0,0,0,0,0,0,0,0,0,0,0,0,0,0,0,0,0,0,0,0,0,0,0,0,0,0,0,0,0,0,0,0,0,0,0,0,0,0,0,0,0,0,0,0,0,0,0,0,0,0,0,0,0,0,0,0,0,0,0,0,0,0,0,0,0,0,0,0,0,0,0,0,0,0,0,0,0,0,0,0,0,0,0,0,0,0,0,0,0,0,0,0,0,0,0,0,0,0,0,0,0],"split_type":[0,0,0,0,0,0,0,0,0,0,0,0,0,0,0,0,0,0,0,0,0,0,0,0,0,0,0,0,0,0,0,0,0,0,0,0,0,0,0,0,0,0,0,0,0,0,0,0,0,0,0,0,0,0,0,0,0,0,0,0,0,0,0,0,0,0,0,0,0,0,0,0,0,0,0,0,0,0,0,0,0,0,0,0,0,0,0,0,0,0,0,0,0,0,0,0,0,0,0,0,0,0,0,0,0,0,0,0,0,0,0,0,0,0,0,0,0,0,0,0,0,0,0,0,0,0,0,0,0,0,0,0,0,0,0,0,0,0,0,0,0,0,0,0,0,0,0,0,0,0,0,0,0,0,0,0,0,0,0,0,0,0,0,0,0,0,0,0,0,0,0,0,0,0,0,0,0,0,0,0,0,0,0,0,0,0,0,0,0,0,0,0,0,0,0,0,0,0,0,0,0,0,0,0,0,0,0,0,0,0,0,0,0,0,0,0,0,0,0,0,0,0,0,0,0,0,0,0,0,0,0,0,0,0,0,0,0,0,0,0,0,0,0,0,0,0,0,0,0,0,0,0,0,0,0,0,0,0,0,0,0,0,0,0,0,0,0,0,0,0,0,0,0,0,0,0,0,0,0,0,0,0,0,0,0,0,0,0,0,0,0,0,0,0,0,0,0,0,0,0,0,0,0,0,0,0,0,0,0,0,0,0,0,0,0,0,0,0,0,0,0,0,0,0,0,0,0,0,0,0,0,0,0,0,0,0,0,0,0,0,0,0,0,0,0,0,0,0,0,0,0,0,0,0,0,0,0,0,0,0,0],"sum_hessian":[6.151E3,5.489E3,6.62E2,3.407E3,2.082E3,3.3E2,3.32E2,2.047E3,1.36E3,9.63E2,1.119E3,1.55E2,1.75E2,2.07E2,1.25E2,2.044E3,3E0,9.11E2,4.49E2,4.07E2,5.56E2,3.4E2,7.79E2,1.35E2,2E1,1.16E2,5.9E1,1.53E2,5.4E1,8.5E1,4E1,4.15E2,1.629E3,1E0,2E0,4.91E2,4.2E2,3.53E2,9.6E1,3.54E2,5.3E1,4.26E2,1.3E2,2.88E2,5.2E1,2.46E2,5.33E2,1.14E2,2.1E1,7E0,1.3E1,2.7E1,8.9E1,5.6E1,3E0,7.8E1,7.5E1,4.5E1,9E0,1E0,8.4E1,3.8E1,2E0,6.9E1,3.46E2,1.135E3,4.94E2,5.8E1,4.33E2,1.01E2,3.19E2,2.97E2,5.6E1,1.3E1,8.3E1,2.05E2,1.49E2,1E0,5.2E1,7.9E1,3.47E2,8.3E1,4.7E1,1.35E2,1.53E2,2.1E1,3.1E1,2.25E2,2.1E1,4.01E2,1.32E2,5E0,1.09E2,8E0,1.3E1,6E0,1E0,6E0,7E0,7E0,2E1,3.7E1,5.2E1,2.9E1,2.7E1,1E0,2E0,4.4E1,3.4E1,3E0,7.2E1,6E0,3.9E1,5E0,4E0,8E1,4E0,1.4E1,2.4E1,1E0,1E0,6.8E1,1E0,2.37E2,1.09E2,6.83E2,4.52E2,9.5E1,3.99E2,3.1E1,2.7E1,7.3E1,3.6E2,1.9E1,8.2E1,1.98E2,1.21E2,2.17E2,8E1,3E0,5.3E1,1.2E1,1E0,5.6E1,2.7E1,1.27E2,7.8E1,1.21E2,2.8E1,3.5E1,1.7E1,1E0,7.8E1,6.7E1,2.8E2,7.4E1,9E0,3E0,4.4E1,1.1E2,2.5E1,6.4E1,8.9E1,1.1E1,1E1,9E0,2.2E1,6.2E1,1.63E2,1.9E1,2E0,2.56E2,1.45E2,1.09E2,2.3E1,1.7E1,9.2E1,6E0,2E0,8E0,5E0,5E0,1E0,6E0,1E0,4E0,3E0,1.8E1,2E0,2.6E1,1.1E1,3E0,4.9E1,2.2E1,7E0,2.5E1,2E0,1.4E1,3E1,9E0,2.5E1,1E0,2E0,3E0,6.9E1,2E0,4E0,1E0,3.8E1,3E0,2E0,1E0,3E0,1E0,7.9E1,3E0,1E0,7E0,7E0,4E0,2E1,6.6E1,6.17E2,2.49E2,2.03E2,3.01E2,9.8E1,1E1,2.1E1,6E0,2.1E1,7.2E1,1E0,5.2E1,3.08E2,1E0,1.8E1,1.5E1,6.7E1,1.83E2,1.5E1,3.9E1,8.2E1,1.66E2,5.1E1,3.5E1,4.5E1,2E0,1E0,1E1,2E0,1.2E1,4.4E1,1E0,2.6E1,4.4E1,8.3E1,1.8E1,6E1,1.9E1,1.02E2,2.5E1,3E0,3E0,1.4E1,6.6E1,1.2E1,5.2E1,1.5E1,1.16E2,1.64E2,3.1E1,4.3E1,1E0,8E0,2E0,1E0,1.2E1,3.2E1,8E0,1.02E2,2.1E1,4E0,3.5E1,2.9E1,8.1E1,8E0,2E0,9E0,4E0,6E0,2E0,7E0,1E0,2.1E1,4.9E1,1.3E1,1.22E2,4.1E1,1.8E1,1E0,2.07E2,4.9E1,4.1E1,1.04E2,3.9E1,7E1,2E1,3E0,4E0,1.3E1,6.4E1,2.8E1,4E0,2E0,7E0,1E0,3E0,2E0,4E0,1E0,4E0,2E0,2E0,1E0,2E1,6E0,3.2E1,1.7E1,2E1,2E0,1E0,2.4E1,1E0,1.3E1,2E0,2.8E1,5E0,4E0,2.4E1,1E0,3.9E1,3E1,1E0,1E0,1E0,3E0,1.8E1,2E1,1E0,1E0,3E0,7.6E1,3E0,4E0,2E0,5E0,2E0,2E0,3E0,1.7E1],"tree_param":{"num_deleted":"0","num_feature":"14","num_nodes":"361","size_leaf_vector":"1"}},{"base_weights":[2.5391666E-2,-1.8855273E0,1.585337E1,-4.385539E0,2.2129114E0,9.483107E0,2.20448E1,-5.483196E0,-2.7173615E0,3.8083496E0,5.051523E-1,5.0616527E0,1.3255133E1,1.7627466E1,2.9245037E1,-5.51771E0,1.3739992E1,-9.0087193E-1,-3.7951822E0,1.6979402E0,6.6140385E0,-6.8484235E-1,2.1099248E0,3.3506513E0,1.704242E1,1.1127987E1,2.0799145E1,2.0789654E1,9.270099E0,3.1542496E1,2.2033094E1,-6.8433433E0,-5.1869707E0,1.5911626E0,-1.447756E-1,-2.947215E0,-2.5677234E-1,-3.2640917E0,-5.0501804E0,2.6640394E0,3.9367887E-1,3.881669E0,8.59048E0,-3.7249574E-1,-5.2839975E0,2.9741028E-1,3.5723426E0,-2.9847798E-1,5.5436406E0,2.1530693E1,3.7293782E0,1.6916285E1,8.828263E0,2.222524E1,-1.623528E-1,1.6322666E1,2.5588308E1,1.5150741E1,4.327528E0,3.201317E1,6.5943456E0,4.7301693E0,2.4182478E1,-6.203587E0,-7.4840693E0,-4.3015733E0,-5.508705E0,-2.2685342E0,-3.5268235E0,5.8738448E-2,-1.9542522E0,-2.9524355E0,-5.014653E0,-3.972284E0,-6.6867843E0,1.5737172E0,3.5460691E0,-1.7242439E0,5.642674E-1,4.1151114E0,-6.0159486E-2,5.661804E0,9.756841E0,3.4208875E-2,-3.3888931E0,-6.014338E0,4.997976E0,1.6455332E0,-4.4749637E0,1.9409454E0,6.8518696E0,4.939951E0,-1.2231214E0,1.0786105E1,3.0505867E0,1.1451211E0,9.245491E-2,-1.9655573E-1,3.8604155E-1,1.1976744E1,2.0188807E1,7.129415E0,1.5963726E1,-1.2788586E-1,2.3006403E1,1.694827E1,-1.13665104E-1,3.319469E-1,2.6315979E1,5.277653E0,1.9030058E1,6.8183045E0,-2.3321657E0,3.2462337E1,1.4015881E1,6.1561084E-1,-1.2103492E-1,8.158831E0,-2.2461186E-1,9.819148E0,2.6662378E1,-2.9257846E-1,-3.62399E-1,-3.7607935E-1,-4.518032E-4,-4.0554605E0,-5.2595186E0,-4.657611E0,-5.8211527E0,-1.8405747E-1,-1.7032984E0,-5.7109594E-3,-3.579179E0,-9.9455476E-1,5.296909E-1,-1.695873E-1,-5.110268E0,-4.572716E0,-2.6267958E0,-5.232703E0,-1.6816733E0,-5.533847E0,-3.1759796E0,-3.7900844E-1,-3.007539E0,1.9991128E0,6.1699885E-1,5.3536696E0,2.6290987E0,2.7424908E-1,-1.9615347E0,1.2107743E0,-2.86903E-1,3.539732E0,5.3876038E0,-4.2056265E0,3.5016923E0,6.7150154E0,3.5036323E0,1.398052E1,8.786196E0,-5.8076555E-1,1.6910926E0,1.4379766E-2,-3.866798E0,-3.1151935E-1,3.3283282E-2,4.1059908E-1,-3.5750914E-2,3.4316454E0,-9.297911E-2,1.18064E0,-5.2501917E0,3.7231574E0,9.0122247E-1,3.920177E0,1.3819461E1,3.287359E-1,1.6615055E0,-2.6467824E0,2.9125113E0,1.3196749E1,-2.4600782E0,1.3753133E0,7.4669266E0,7.418373E-2,-1.3093118E-1,6.719829E0,7.755146E-1,2.1043835E1,5.5829454E-2,8.104471E0,5.224494E-1,1.7688423E1,5.0740013E0,1.7598934E0,1.9270311E1,2.0187534E1,1.4185591E1,-2.0633538E-1,4.1086436E-3,2.7380852E1,1.47737055E1,4.166604E-1,3.214179E0,9.112622E0,2.4055845E1,7.768832E0,-2.7418451E0,-2.6764092E-1,5.7373935E-1,4.6035758E-1,1.6310987E0,-1.37246E-1,1.0258894E0,1.06013134E-1,4.7324663E-1,8.846681E-2,1.340172E1,1.7031897E1,1.650631E0,-1.5009426E-1,-2.0925859E-1,-2.7747032E-1,-1.2217279E-1,-2.4718833E-1,-1.779791E-1,-2.704107E-1,-3.1363544E-1,-8.964614E-2,5.3763628E-2,-1.8290913E-1,-3.8985457E-2,3.2545265E-2,-7.4092604E-2,4.93125E-2,-8.895289E-2,5.0017633E-2,-1.09308876E-1,-3.6619452E-1,-1.11541905E-1,-2.767772E-1,-1.5195446E-1,-4.5621153E-2,-1.4094289E-1,-2.7523613E-1,-1.1771196E-1,2.0424943E-1,-1.6618076E-1,-1.7371164E-1,-3.0735123E-1,-2.2811614E-1,-1.0896666E-1,-2.0834692E-1,-4.9934022E-2,-7.475769E-2,1.0222357E-1,-8.414583E-3,8.299021E-2,3.0890918E-1,1.5948023E-1,1.7956994E-1,8.061917E-2,3.728156E-2,-1.671288E-2,-5.2421104E-2,-1.07376836E-1,2.6704151E-2,2.0115359E-1,9.355786E-2,-2.4009613E-2,-4.515789E-2,1.8433885E-1,1.7030284E-1,3.0820101E-1,-2.4367681E-1,-2.1652007E-2,3.30801E-2,1.9323869E-1,3.572682E-1,1.1123904E-1,-5.177925E-2,1.9463165E-1,7.265553E-1,1.7237155E-1,4.5943102E-1,5.5143453E-2,-5.2811414E-2,2.6855836E-2,2.0836113E-1,-3.321257E-2,4.499836E-2,-1.0283921E-1,-1.4047347E-1,-2.841191E-1,7.589256E-2,3.9865786E-1,-2.0545197E-1,1.8042214E-2,2.2084057E-1,-1.763901E-1,-2.9836243E-1,3.3791658E-2,2.8522217E-1,5.8184545E-2,-8.261198E-3,1.6362819E-1,2.3161037E-1,5.5206586E-3,7.6608485E-1,-6.513371E-2,-2.439983E-2,1.2703358E-1,-3.2988936E-1,-5.886638E-2,-8.9793086E-2,6.389112E-1,1.0610552E0,5.46602E-1,-2.2439818E-1,1.4128661E-1,1.5706886E-1,-1.3167468E-1,5.304162E-1,1.4997451E-1,1.266789E-1,3.7769806E-1,1.0905622E0,1.4239204E-1,4.524424E-1,2.0577767E-1,3.0702856E-1,-6.076161E-2,9.2437E-1,1.425945E-1,2.9417437E-1,6.6138625E-2,-1.7241088E-1,1.0102419E0,3.7070143E-1,1.0377096E0,-3.666253E-2,7.266708E-1,-1.2258792E-2,-3.216362E-3,1.3869433E0,5.546809E-1,1.8081377E-1,1.0372455E0,9.103203E-3,1.8445937E-1,5.1282054E-1,2.7652575E-2,1.3736404E0,2.3236763E-1,-2.3568058E-2,4.0824062E-1,3.0495286E-2,-2.3613368E-1,-9.905048E-2,1.8944125E-1,9.858706E-2,8.277233E-1,1.1309012E0,3.838049E-1],"categories":[],"categories_nodes":[],"categories_segments":[],"categories_sizes":[],"default_left":[0,0,0,0,0,0,0,0,0,0,0,0,0,0,0,0,0,0,0,0,0,0,0,0,0,0,0,0,0,0,0,0,0,0,0,0,0,0,0,0,0,0,0,0,0,0,0,0,0,0,0,0,0,0,0,0,0,0,0,0,0,0,0,0,0,0,0,0,0,0,0,0,0,0,0,0,0,0,0,0,0,0,0,0,0,0,0,0,0,0,0,0,0,0,0,0,0,0,0,0,0,0,0,0,0,0,0,0,0,0,0,0,0,0,0,0,0,0,0,0,0,0,0,0,0,0,0,0,0,0,0,0,0,0,0,0,0,0,0,0,0,0,0,0,0,0,0,0,0,0,0,0,0,0,0,0,0,0,0,0,0,0,0,0,0,0,0,0,0,0,0,0,0,0,0,0,0,0,0,0,0,0,0,0,0,0,0,0,0,0,0,0,0,0,0,0,0,0,0,0,0,0,0,0,0,0,0,0,0,0,0,0,0,0,0,0,0,0,0,0,0,0,0,0,0,0,0,0,0,0,0,0,0,0,0,0,0,0,0,0,0,0,0,0,0,0,0,0,0,0,0,0,0,0,0,0,0,0,0,0,0,0,0,0,0,0,0,0,0,0,0,0,0,0,0,0,0,0,0,0,0,0,0,0,0,0,0,0,0,0,0,0,0,0,0,0,0,0,0,0,0,0,0,0,0,0,0,0,0,0,0,0,0,0,0,0,0,0,0,0,0,0,0,0,0,0,0,0,0,0,0,0,0,0,0,0,0,0,0,0,0,0,0,0,0,0,0,0,0,0,0,0,0,0,0,0,0,0,0,0,0,0,0,0,0],"id":1,"left_children":[1,3,5,7,9,11,13,15,17,19,21,23,25,27,29,31,33,35,37,39,41,43,45,47,49,51,53,55,57,59,61,63,65,-1,-1,67,69,71,73,75,77,79,81,83,85,87,89,91,93,95,97,99,101,103,-1,105,107,109,111,113,115,117,119,121,123,125,127,129,131,133,135,137,139,141,143,145,147,149,151,153,155,157,159,161,163,165,167,169,171,173,175,177,179,181,183,-1,-1,185,-1,187,189,191,193,-1,195,197,199,-1,201,203,205,207,209,211,213,-1,-1,215,-1,217,219,-1,-1,-1,-1,221,223,225,227,-1,229,-1,231,233,235,237,239,241,243,245,247,249,251,-1,253,255,257,259,261,263,265,267,269,271,273,275,277,279,281,283,285,287,289,291,293,-1,-1,-1,-1,295,297,299,301,303,305,307,309,-1,311,313,315,317,319,321,323,-1,-1,325,-1,327,-1,329,331,333,335,-1,337,339,341,343,-1,345,347,-1,349,351,353,355,357,-1,359,-1,-1,-1,-1,-1,-1,-1,361,363,-1,-1,-1,-1,-1,-1,-1,-1,-1,-1,-1,-1,-1,-1,-1,-1,-1,-1,-1,-1,-1,-1,-1,-1,-1,-1,-1,-1,-1,-1,-1,-1,-1,-1,-1,-1,-1,-1,-1,-1,-1,-1,-1,-1,-1,-1,-1,-1,-1,-1,-1,-1,-1,-1,-1,-1,-1,-1,-1,-1,-1,-1,-1,-1,-1,-1,-1,-1,-1,-1,-1,-1,-1,-1,-1,-1,-1,-1,-1,-1,-1,-1,-1,-1,-1,-1,-1,-1,-1,-1,-1,-1,-1,-1,-1,-1,-1,-1,-1,-1,-1,-1,-1,-1,-1,-1,-1,-1,-1,-1,-1,-1,-1,-1,-1,-1,-1,-1,-1,-1,-1,-1,-1,-1,-1,-1,-1,-1,-1,-1,-1,-1,-1,-1,-1,-1,-1,-1,-1,-1,-1,-1,-1,-1,-1],"loss_changes":[1.8755498E5,5.670162E4,2.6137578E4,6.278547E3,5.7116143E3,5.4532695E3,1.0234859E4,1.4505234E3,2.671003E3,6.407298E3,1.937851E3,3.0997593E3,2.624955E3,5.409922E3,1.4092969E3,8.716367E2,1.295441E3,6.714481E2,5.547217E2,7.801797E2,2.4778262E3,8.3552905E2,1.1440199E3,1.0899948E3,1.0550029E3,1.7275781E3,1.3752695E3,2.8619688E3,1.6783638E3,8.926797E2,1.1500938E3,1.21634766E2,4.4917578E2,0E0,0E0,3.9990356E1,2.0845277E2,3.152661E2,4.1975293E2,3.3678345E2,9.671565E1,1.815249E2,8.6363477E2,6.711661E2,3.0790527E2,1.2555105E3,1.2654016E3,2.5791348E2,1.0780242E3,3.3562158E2,9.553866E1,3.8862988E2,1.1347612E3,7.557871E2,0E0,8.4510156E2,8.1808984E2,9.3368896E2,5.79887E2,2.8871875E2,1.8444476E2,1.947539E2,8.067871E2,3.5160645E1,5.6020508E1,8.405664E1,2.9571094E2,4.083911E1,1.1025879E1,1.6372762E2,3.427116E2,2.6024414E2,5.66084E1,1.7516357E2,3.0261377E2,6.4290955E1,3.1079785E2,1.0022427E1,1.3571811E2,1.1711206E2,1.919133E2,1.5604102E2,6.6020703E2,4.9313074E2,1.0577423E2,5.4659546E1,6.095652E1,4.7230615E2,1.9472699E2,2.949787E2,1.5595457E3,3.1952011E1,2.7265704E2,8.946245E2,4.262467E2,0E0,0E0,2.0163713E1,0E0,2.3013379E2,3.352627E2,5.433496E2,2.6709717E2,0E0,9.159199E2,4.2060156E2,8.954861E-2,0E0,4.435625E2,2.996112E1,7.278037E2,2.4848059E2,9.0848434E1,3.0054688E1,4.9222845E2,0E0,0E0,1.1479797E1,0E0,1.4932208E2,9.666289E2,0E0,0E0,0E0,0E0,3.6634766E1,5.827832E1,8.64043E1,1.3091211E2,0E0,1.2885078E1,0E0,1.108136E1,8.275102E1,2.4208484E2,9.6558525E1,1.2388898E2,1.086897E2,1.3967065E2,5.28125E1,7.985658E1,4.3052246E1,1.3513501E2,0E0,4.474901E1,2.0649689E1,4.2043488E1,9.627368E1,1.2335608E2,1.1097504E0,8.056183E-1,2.6427936E2,4.5531414E1,8.89126E1,6.5161255E1,1.3008026E1,4.6613464E0,8.4586426E1,5.3472412E1,1.470835E2,4.7839648E2,1.8819083E2,7.667781E2,1.8358809E1,9.3456604E1,0E0,0E0,0E0,0E0,6.397619E2,1.4364413E2,1.07005585E2,1.6550598E2,2.9255286E2,2.6101825E2,1.5411066E2,5.424502E2,0E0,8.798919E0,1.896302E2,5.803653E2,1.8598486E2,6.6276886E1,3.197844E2,1.9272424E2,0E0,0E0,1.2288422E1,0E0,2.31125E2,0E0,2.4152002E2,1.2461229E2,1.3694043E2,4.3637466E0,0E0,6.853721E2,9.2225586E1,2.4935645E2,7.7550113E-4,0E0,5.380078E1,4.5796704E2,0E0,9.410294E0,7.265045E1,6.681406E2,7.889636E1,2.2798113E1,0E0,5.6788113E1,0E0,0E0,0E0,0E0,0E0,0E0,0E0,1.1150214E2,4.5353418E2,0E0,0E0,0E0,0E0,0E0,0E0,0E0,0E0,0E0,0E0,0E0,0E0,0E0,0E0,0E0,0E0,0E0,0E0,0E0,0E0,0E0,0E0,0E0,0E0,0E0,0E0,0E0,0E0,0E0,0E0,0E0,0E0,0E0,0E0,0E0,0E0,0E0,0E0,0E0,0E0,0E0,0E0,0E0,0E0,0E0,0E0,0E0,0E0,0E0,0E0,0E0,0E0,0E0,0E0,0E0,0E0,0E0,0E0,0E0,0E0,0E0,0E0,0E0,0E0,0E0,0E0,0E0,0E0,0E0,0E0,0E0,0E0,0E0,0E0,0E0,0E0,0E0,0E0,0E0,0E0,0E0,0E0,0E0,0E0,0E0,0E0,0E0,0E0,0E0,0E0,0E0,0E0,0E0,0E0,0E0,0E0,0E0,0E0,0E0,0E0,0E0,0E0,0E0,0E0,0E0,0E0,0E0,0E0,0E0,0E0,0E0,0E0,0E0,0E0,0E0,0E0,0E0,0E0,0E0,0E0,0E0,0E0,0E0,0E0,0E0,0E0,0E0,0E0,0E0,0E0,0E0,0E0,0E0,0E0,0E0,0E0,0E0,0E0,0E0,0E0,0E0,0E0,0E0,0E0,0E0],"parents":[2147483647,0,0,1,1,2,2,3,3,4,4,5,5,6,6,7,7,8,8,9,9,10,10,11,11,12,12,13,13,14,14,15,15,16,16,17,17,18,18,19,19,20,20,21,21,22,22,23,23,24,24,25,25,26,26,27,27,28,28,29,29,30,30,31,31,32,32,35,35,36,36,37,37,38,38,39,39,40,40,41,41,42,42,43,43,44,44,45,45,46,46,47,47,48,48,49,49,50,50,51,51,52,52,53,53,55,55,56,56,57,57,58,58,59,59,60,60,61,61,62,62,63,63,64,64,65,65,66,66,67,67,68,68,69,69,70,70,71,71,72,72,73,73,74,74,75,75,76,76,77,77,78,78,79,79,80,80,81,81,82,82,83,83,84,84,85,85,86,86,87,87,88,88,89,89,90,90,91,91,92,92,93,93,94,94,97,97,99,99,100,100,101,101,102,102,104,104,105,105,106,106,108,108,109,109,110,110,111,111,112,112,113,113,114,114,117,117,119,119,120,120,125,125,126,126,127,127,128,128,130,130,132,132,133,133,134,134,135,135,136,136,137,137,138,138,139,139,140,140,141,141,142,142,144,144,145,145,146,146,147,147,148,148,149,149,150,150,151,151,152,152,153,153,154,154,155,155,156,156,157,157,158,158,159,159,160,160,161,161,162,162,163,163,164,164,169,169,170,170,171,171,172,172,173,173,174,174,175,175,176,176,178,178,179,179,180,180,181,181,182,182,183,183,184,184,187,187,189,189,191,191,192,192,193,193,194,194,196,196,197,197,198,198,199,199,201,201,202,202,204,204,205,205,206,206,207,207,208,208,210,210,218,218,219,219],"right_children":[2,4,6,8,10,12,14,16,18,20,22,24,26,28,30,32,34,36,38,40,42,44,46,48,50,52,54,56,58,60,62,64,66,-1,-1,68,70,72,74,76,78,80,82,84,86,88,90,92,94,96,98,100,102,104,-1,106,108,110,112,114,116,118,120,122,124,126,128,130,132,134,136,138,140,142,144,146,148,150,152,154,156,158,160,162,164,166,168,170,172,174,176,178,180,182,184,-1,-1,186,-1,188,190,192,194,-1,196,198,200,-1,202,204,206,208,210,212,214,-1,-1,216,-1,218,220,-1,-1,-1,-1,222,224,226,228,-1,230,-1,232,234,236,238,240,242,244,246,248,250,252,-1,254,256,258,260,262,264,266,268,270,272,274,276,278,280,282,284,286,288,290,292,294,-1,-1,-1,-1,296,298,300,302,304,306,308,310,-1,312,314,316,318,320,322,324,-1,-1,326,-1,328,-1,330,332,334,336,-1,338,340,342,344,-1,346,348,-1,350,352,354,356,358,-1,360,-1,-1,-1,-1,-1,-1,-1,362,364,-1,-1,-1,-1,-1,-1,-1,-1,-1,-1,-1,-1,-1,-1,-1,-1,-1,-1,-1,-1,-1,-1,-1,-1,-1,-1,-1,-1,-1,-1,-1,-1,-1,-1,-1,-1,-1,-1,-1,-1,-1,-1,-1,-1,-1,-1,-1,-1,-1,-1,-1,-1,-1,-1,-1,-1,-1,-1,-1,-1,-1,-1,-1,-1,-1,-1,-1,-1,-1,-1,-1,-1,-1,-1,-1,-1,-1,-1,-1,-1,-1,-1,-1,-1,-1,-1,-1,-1,-1,-1,-1,-1,-1,-1,-1,-1,-1,-1,-1,-1,-1,-1,-1,-1,-1,-1,-1,-1,-1,-1,-1,-1,-1,-1,-1,-1,-1,-1,-1,-1,-1,-1,-1,-1,-1,-1,-1,-1,-1,-1,-1,-1,-1,-1,-1,-1,-1,-1,-1,-1,-1,-1,-1,-1,-1],"split_conditions":[1.0142803E0,-1.4893991E-1,9.631853E-1,-5.3668E-1,-1.0336573E-1,-7.414685E-2,2.9529808E0,2.6229167E0,-3.9700112E-1,1.2829201E-1,4.822058E-1,3.6289089E0,2.5264666E0,4.6173078E-1,5.261529E-1,-8.094592E-1,-7.3055005E-1,-5.54256E-1,6.690531E-1,-4.7040996E-1,4.3267024E-1,4.3886942E-1,-1.3342297E-1,-1.4100658E0,-4.357312E-1,-4.7040996E-1,2.3213825E0,1.3417108E0,3.2253325E-1,1.3073066E0,1.8090121E-1,4.9579316E-1,-4.7040996E-1,1.5911626E0,-1.447756E-1,-7.089887E-1,6.690531E-1,1.5762334E0,-1.0378491E-1,-1.9311951E-1,-1.0107096E0,1.1005834E0,-2.3986537E-2,1.8682803E0,6.284293E-1,6.849811E-1,1.0659419E0,-4.830909E-2,3.2253325E-1,3.922331E0,-1.2071943E0,8.987166E-1,1.0659419E0,-2.449625E0,-1.623528E-1,1.0155729E0,-1.3938733E0,-1.3743536E0,1.7278473E0,9.647851E0,-2.1031053E0,3.340721E0,-7.81465E-2,4.295197E-1,3.773468E0,9.3354726E-1,-1.2774521E0,-6.589857E-1,-2.3070514E0,-4.447113E-1,7.997107E-2,-5.8435076E-1,-7.394446E-2,-1.0225648E0,9.18263E-2,-6.539321E-1,-7.8239757E-1,-9.2978686E-1,5.0675917E-1,2.3880018E-1,1.4927337E-1,-3.4139824E-1,-8.374542E-1,1.2829201E-1,-2.8340364E-1,7.2608083E-1,7.997107E-2,-1.2241037E0,-1.2833798E0,1.4927337E-1,6.2654024E-1,-2.2111553E-1,2.8787131E0,8.7564284E-1,-4.0016553E-1,1.1451211E0,9.245491E-2,2.8787131E0,3.8604155E-1,1.4927337E-1,1.1888328E0,8.4231293E-1,7.8535694E-1,-1.2788586E-1,-1.5833256E0,-8.1060594E-1,1.9836305E0,3.319469E-1,1.3521303E-1,5.953767E-2,1.7897605E0,2.1906607E0,2.3713706E0,1.4909805E0,-2.2763653E0,6.1561084E-1,-1.2103492E-1,-1.3938733E0,-2.2461186E-1,-1.9298455E0,1.9026966E-1,-2.9257846E-1,-3.62399E-1,-3.7607935E-1,-4.518032E-4,-9.4756746E-1,4.50744E-1,4.50744E-1,6.7475443E-3,-1.8405747E-1,1.0659419E0,-5.7109594E-3,1.1888328E0,-1.059168E0,9.8753744E-1,1.1888328E0,9.18263E-2,-4.1794837E-1,-1.265597E0,5.9401834E-1,9.8753744E-1,-6.423626E-1,-4.447113E-1,-3.7900844E-1,-3.8158396E-1,-1.2044984E0,-1.3230878E-2,8.14995E-1,1.7481287E-1,-1.3230878E-2,-3.0524006E-1,2.3880018E-1,-7.327626E-1,-9.158678E-1,-1.7565855E0,1.4167886E0,-1.2833798E0,-1.9724643E-1,-2.2763653E0,2.8787131E0,1.1888328E0,1.0659419E0,1.1549393E-2,-1.1108369E0,3.5543957E-1,-3.1151935E-1,3.3283282E-2,4.1059908E-1,-3.5750914E-2,8.204103E-1,-1.434751E0,-2.449625E0,1.8834156E0,6.066805E-1,8.801987E-1,8.5598594E-1,1.011483E0,3.287359E-1,-2.449625E0,-1.0403477E0,-7.5208104E-1,-1.3743536E0,-9.8395836E-1,5.389617E-1,1.7897605E0,7.418373E-2,-1.3093118E-1,3.2300317E-1,7.755146E-1,1.5089409E-1,5.5829454E-2,8.03168E-1,-3.786489E-1,1.2444595E0,-9.546788E-1,1.7598934E0,-1.063546E0,3.473815E-1,-1.5485293E0,1.7897605E0,4.1086436E-3,3.5221317E-1,1.9836305E0,4.166604E-1,1.2081504E0,1.4966704E0,-9.580929E-2,9.809681E-1,4.50744E-1,-2.6764092E-1,6.1325884E-1,4.6035758E-1,1.6310987E0,-1.37246E-1,1.0258894E0,1.06013134E-1,4.7324663E-1,8.846681E-2,3.728461E0,-1.5842237E-1,1.650631E0,-1.5009426E-1,-2.0925859E-1,-2.7747032E-1,-1.2217279E-1,-2.4718833E-1,-1.779791E-1,-2.704107E-1,-3.1363544E-1,-8.964614E-2,5.3763628E-2,-1.8290913E-1,-3.8985457E-2,3.2545265E-2,-7.4092604E-2,4.93125E-2,-8.895289E-2,5.0017633E-2,-1.09308876E-1,-3.6619452E-1,-1.11541905E-1,-2.767772E-1,-1.5195446E-1,-4.5621153E-2,-1.4094289E-1,-2.7523613E-1,-1.1771196E-1,2.0424943E-1,-1.6618076E-1,-1.7371164E-1,-3.0735123E-1,-2.2811614E-1,-1.0896666E-1,-2.0834692E-1,-4.9934022E-2,-7.475769E-2,1.0222357E-1,-8.414583E-3,8.299021E-2,3.0890918E-1,1.5948023E-1,1.7956994E-1,8.061917E-2,3.728156E-2,-1.671288E-2,-5.2421104E-2,-1.07376836E-1,2.6704151E-2,2.0115359E-1,9.355786E-2,-2.4009613E-2,-4.515789E-2,1.8433885E-1,1.7030284E-1,3.0820101E-1,-2.4367681E-1,-2.1652007E-2,3.30801E-2,1.9323869E-1,3.572682E-1,1.1123904E-1,-5.177925E-2,1.9463165E-1,7.265553E-1,1.7237155E-1,4.5943102E-1,5.5143453E-2,-5.2811414E-2,2.6855836E-2,2.0836113E-1,-3.321257E-2,4.499836E-2,-1.0283921E-1,-1.4047347E-1,-2.841191E-1,7.589256E-2,3.9865786E-1,-2.0545197E-1,1.8042214E-2,2.2084057E-1,-1.763901E-1,-2.9836243E-1,3.3791658E-2,2.8522217E-1,5.8184545E-2,-8.261198E-3,1.6362819E-1,2.3161037E-1,5.5206586E-3,7.6608485E-1,-6.513371E-2,-2.439983E-2,1.2703358E-1,-3.2988936E-1,-5.886638E-2,-8.9793086E-2,6.389112E-1,1.0610552E0,5.46602E-1,-2.2439818E-1,1.4128661E-1,1.5706886E-1,-1.3167468E-1,5.304162E-1,1.4997451E-1,1.266789E-1,3.7769806E-1,1.0905622E0,1.4239204E-1,4.524424E-1,2.0577767E-1,3.0702856E-1,-6.076161E-2,9.2437E-1,1.425945E-1,2.9417437E-1,6.6138625E-2,-1.7241088E-1,1.0102419E0,3.7070143E-1,1.0377096E0,-3.666253E-2,7.266708E-1,-1.2258792E-2,-3.216362E-3,1.3869433E0,5.546809E-1,1.8081377E-1,1.0372455E0,9.103203E-3,1.8445937E-1,5.1282054E-1,2.7652575E-2,1.3736404E0,2.3236763E-1,-2.3568058E-2,4.0824062E-1,3.0495286E-2,-2.3613368E-1,-9.905048E-2,1.8944125E-1,9.858706E-2,8.277233E-1,1.1309012E0,3.838049E-1],"split_indices":[0,0,2,0,13,2,0,2,13,3,3,3,0,12,12,3,0,3,5,13,0,3,2,5,2,13,12,3,5,9,9,5,13,0,0,13,5,12,2,3,2,12,5,12,9,1,4,13,5,0,9,3,4,5,0,5,1,1,2,3,5,0,11,12,4,2,2,3,9,3,2,3,3,2,2,13,13,12,2,0,5,12,13,3,3,2,2,2,2,5,0,9,7,12,2,0,0,7,0,5,5,5,2,0,5,12,0,0,13,9,0,13,0,3,5,0,0,1,0,5,13,0,0,0,0,13,1,1,13,0,4,0,5,12,1,5,2,2,2,13,1,1,3,0,0,13,0,2,2,0,13,0,12,2,5,12,2,5,5,7,5,4,1,1,13,0,0,0,0,0,9,5,3,12,2,9,9,0,5,2,9,1,1,13,0,0,0,2,0,12,0,12,13,12,1,0,5,3,9,0,0,12,0,0,0,2,1,2,1,0,9,0,0,0,0,0,0,0,0,13,0,0,0,0,0,0,0,0,0,0,0,0,0,0,0,0,0,0,0,0,0,0,0,0,0,0,0,0,0,0,0,0,0,0,0,0,0,0,0,0,0,0,0,0,0,0,0,0,0,0,0,0,0,0,0,0,0,0,0,0,0,0,0,0,0,0,0,0,0,0,0,0,0,0,0,0,0,0,0,0,0,0,0,0,0,0,0,0,0,0,0,0,0,0,0,0,0,0,0,0,0,0,0,0,0,0,0,0,0,0,0,0,0,0,0,0,0,0,0,0,0,0,0,0,0,0,0,0,0,0,0,0,0,0,0,0,0,0,0,0,0,0,0,0,0],"split_type":[0,0,0,0,0,0,0,0,0,0,0,0,0,0,0,0,0,0,0,0,0,0,0,0,0,0,0,0,0,0,0,0,0,0,0,0,0,0,0,0,0,0,0,0,0,0,0,0,0,0,0,0,0,0,0,0,0,0,0,0,0,0,0,0,0,0,0,0,0,0,0,0,0,0,0,0,0,0,0,0,0,0,0,0,0,0,0,0,0,0,0,0,0,0,0,0,0,0,0,0,0,0,0,0,0,0,0,0,0,0,0,0,0,0,0,0,0,0,0,0,0,0,0,0,0,0,0,0,0,0,0,0,0,0,0,0,0,0,0,0,0,0,0,0,0,0,0,0,0,0,0,0,0,0,0,0,0,0,0,0,0,0,0,0,0,0,0,0,0,0,0,0,0,0,0,0,0,0,0,0,0,0,0,0,0,0,0,0,0,0,0,0,0,0,0,0,0,0,0,0,0,0,0,0,0,0,0,0,0,0,0,0,0,0,0,0,0,0,0,0,0,0,0,0,0,0,0,0,0,0,0,0,0,0,0,0,0,0,0,0,0,0,0,0,0,0,0,0,0,0,0,0,0,0,0,0,0,0,0,0,0,0,0,0,0,0,0,0,0,0,0,0,0,0,0,0,0,0,0,0,0,0,0,0,0,0,0,0,0,0,0,0,0,0,0,0,0,0,0,0,0,0,0,0,0,0,0,0,0,0,0,0,0,0,0,0,0,0,0,0,0,0,0,0,0,0,0,0,0,0,0,0,0,0,0,0,0,0,0,0,0,0,0,0,0,0,0,0,0,0,0,0,0,0,0,0,0,0,0,0,0,0,0,0,0],"sum_hessian":[6.199E3,5.532E3,6.67E2,3.436E3,2.096E3,3.3E2,3.37E2,2.071E3,1.365E3,1.083E3,1.013E3,1.53E2,1.77E2,2.11E2,1.26E2,2.068E3,3E0,5.09E2,8.56E2,6.19E2,4.64E2,5.82E2,4.31E2,1.35E2,1.8E1,1.4E2,3.7E1,1.52E2,5.9E1,9.3E1,3.3E1,4.09E2,1.659E3,1E0,2E0,1.21E2,3.88E2,6.04E2,2.52E2,3.55E2,2.64E2,1.96E2,2.68E2,5.46E2,3.6E1,1.93E2,2.38E2,5.1E1,8.4E1,1.3E1,5E0,3.8E1,1.02E2,3.5E1,2E0,8.1E1,7.1E1,2.6E1,3.3E1,9.1E1,2E0,4E0,2.9E1,2.1E2,1.99E2,4.46E2,1.213E3,5.8E1,6.3E1,3.28E2,6E1,5.15E2,8.9E1,1.54E2,9.8E1,1.6E2,1.95E2,1.9E1,2.45E2,1.85E2,1.1E1,7.8E1,1.9E2,4.82E2,6.4E1,3.4E1,2E0,1.51E2,4.2E1,1.6E2,7.8E1,7E0,4.4E1,2.6E1,5.8E1,1.2E1,1E0,3E0,2E0,1.7E1,2.1E1,8.4E1,1.8E1,1E0,3.4E1,7.8E1,3E0,3E0,6.8E1,8E0,1.8E1,2.4E1,9E0,8.8E1,3E0,1E0,1E0,3E0,1E0,5E0,2.4E1,1.62E2,4.8E1,1.98E2,1E0,3.59E2,8.7E1,3.3E2,8.83E2,1.5E1,4.3E1,1E0,6.2E1,1.01E2,2.27E2,3.9E1,2.1E1,8.4E1,4.31E2,8.3E1,6E0,5E1,1.04E2,7.8E1,2E1,1.1E2,5E1,6.4E1,1.31E2,2E0,1.7E1,1.39E2,1.06E2,1.3E2,5.5E1,5E0,6E0,5.1E1,2.7E1,3.3E1,1.57E2,3.52E2,1.3E2,8E0,5.6E1,3.3E1,1E0,1E0,1E0,7.4E1,7.7E1,5E0,3.7E1,5.8E1,1.02E2,5.6E1,2.2E1,4E0,3E0,3.3E1,1.1E1,2.2E1,4E0,4.3E1,1.5E1,2E0,1E0,8E0,9E0,2E1,1E0,7.3E1,1.1E1,1.5E1,3E0,6E0,2.8E1,3.3E1,4.5E1,2E0,1E0,6.1E1,7E0,2E0,6E0,7E0,1.1E1,2.2E1,2E0,4E0,5E0,1E0,8.7E1,1E0,2E0,1E0,2E0,2E0,3E0,1.1E1,1.3E1,4.2E1,3.17E2,7.8E1,9E0,2.59E2,7.1E1,4.68E2,4.15E2,4.2E1,1E0,6E1,2E0,2.3E1,7.8E1,1.9E2,3.7E1,2.5E1,1.4E1,1.1E1,1E1,5E1,3.4E1,4.4E1,3.87E2,7.5E1,8E0,1E0,5E0,1.3E1,3.7E1,4.2E1,6.2E1,1.2E1,8E0,1E0,1.09E2,2.9E1,2.1E1,4.5E1,1.9E1,6.6E1,6.5E1,1E0,1E0,4E0,1.3E1,1.13E2,2.6E1,8E0,9.8E1,4E0,1.26E2,1.7E1,3.8E1,4E0,1E0,1E0,5E0,4.6E1,5E0,2E0,2.5E1,3.1E1,2E0,1.49E2,8E0,2.47E2,1.05E2,6.3E1,6.7E1,6E0,2E0,3.7E1,1.9E1,5.3E1,2.1E1,7E0,7E1,3E0,2E0,3.3E1,4E0,3.2E1,2.6E1,7.1E1,3.1E1,4.7E1,9E0,2E1,2E0,1E0,2E0,8E0,2.5E1,8E0,3E0,3E0,1.9E1,3E0,1E0,3E1,1.3E1,8E0,7E0,2E0,6E0,1.9E1,1E0,5.8E1,1.5E1,2E0,9E0,1.4E1,1E0,2E0,1E0,1E0,2.7E1,2E0,3.1E1,1E0,4.4E1,1E0,1E0,5.9E1,2E0,3E0,4E0,1E0,5E0,6E0,1E0,9E0,2E0,1E0,2.1E1,1E0,1E0,3E0,2E0,1E0,2E0,6E0,5E0],"tree_param":{"num_deleted":"0","num_feature":"14","num_nodes":"365","size_leaf_vector":"1"}},{"base_weights":[-2.0531006E-2,-2.7384107E0,8.529707E0,-4.7150784E0,-2.0291637E-1,4.7789893E0,1.5089841E1,-6.349508E0,-4.410998E0,1.415546E0,-2.167105E0,9.85107E0,2.2909577E0,6.53378E0,2.0635323E1,-6.515943E0,1.5513835E0,-2.4800735E0,-4.77404E0,3.401264E-1,3.1720238E0,-7.049849E-1,-2.9100559E0,9.068753E0,2.0858578E1,1.4074559E0,1.665161E1,8.268881E0,2.2162545E0,2.4809652E1,1.5100179E1,-6.0419707E0,-3.6000058E-1,-3.3940256E0,-1.0009816E0,-3.7258623E0,-5.2275114E0,1.4965047E0,-7.8797305E-1,4.5590315E0,2.252934E0,1.6582288E-1,-2.7540736E0,-3.9894705E0,-1.2769672E0,1.4516043E1,8.026006E0,2.328132E1,4.4670454E-1,2.1334112E0,-1.8721379E0,2.4160866E1,9.060699E0,1.2275067E1,6.790667E0,2.5252008E0,-1.872564E0,1.8161316E1,2.6990513E1,1.7098312E1,4.3970785E0,-6.8893256E0,-5.576792E0,-5.6819773E0,-3.2100582E0,-2.2654533E-1,-1.8306547E0,-4.209498E0,-2.5727613E0,-4.4364657E0,-5.4690237E0,2.4260762E0,1.0372412E0,2.2595039E-1,-3.1495888E0,2.3569565E0,6.11449E0,2.9833965E0,7.1394193E-1,-4.8216492E-1,3.8916368E0,-3.301103E0,4.5163074E0,-1.8703443E0,-4.5200925E0,-2.8731272E0,-7.607619E-1,1.0340772E1,1.860085E1,6.0479326E0,1.006853E1,2.3360427E-1,1.2105231E0,5.250387E0,1.5198967E0,-5.2580714E0,1.4867637E0,1.2644691E0,1.2440186E-1,2.0430484E0,1.1263713E1,9.8527355E0,7.82772E-1,5.9444375E0,1.3488248E1,2.7864957E0,1.8608148E-1,-2.517102E-1,9.566321E-2,1.1429876E0,1.3486301E1,2.8129793E1,1.4890473E1,1.5174953E1,2.726115E1,8.102875E0,-1.6013235E0,-3.4860587E-1,-4.4050216E-4,-2.5042984E-1,-5.9107356E0,-6.81985E-2,-2.94649E-1,-4.218915E0,-2.8485608E0,7.509147E-1,-6.1693215E-1,1.497334E0,-2.5979362E0,-3.896349E0,-2.4712923E-1,-1.66936E0,-4.3040543E0,-4.6722713E0,-3.414081E0,-5.10212E0,-5.937076E0,1.6760651E0,3.5388474E0,-2.8854612E-1,1.2486954E0,7.617516E-1,-2.2318494E0,-1.8297687E0,-4.07801E0,1.5207481E0,5.712624E0,6.3831043E0,1.6722575E0,-3.0623128E0,3.1059365E0,4.2303085E-1,3.1235206E0,-2.1506448E0,5.853988E-3,-5.8582697E0,5.8419156E0,-1.5405885E0,-5.1076746E0,5.3883183E-1,1.676813E0,-4.207617E0,-1.3663617E0,-3.3392758E0,-5.90359E0,-3.7451043E0,2.4841986E0,8.808539E-2,-1.4773203E0,1.1101979E1,-1.9820541E-1,9.660412E-1,8.7033704E-2,5.405589E0,7.005948E-1,9.173312E0,1.5783184E1,8.989685E0,3.7918046E0,1.2928544E0,8.441296E0,-5.946237E0,-1.566703E0,1.4699985E1,-9.688503E-2,2.3321633E-1,-4.336723E-1,1.3153615E1,-6.804344E-1,1.04319315E1,2.666861E-1,-4.919982E-1,6.6418176E0,1.6050642E1,4.508492E-1,1.1769216E0,3.2288852E0,-8.957291E-2,8.142478E-1,-5.580163E-2,1.4090855E1,1.5602233E0,2.5093605E1,-2.1964434E-1,1.847044E1,5.57524E0,1.673024E1,4.766929E-1,2.8881195E1,1.3093559E1,4.298177E0,2.840811E0,-5.036215E0,-3.0577365E-1,-2.1782553E-1,-1.795271E-1,-2.7041727E-1,-8.290021E-2,-1.5557529E-1,1.1743831E-2,4.9607843E-2,-1.0019197E-2,-9.943638E-2,8.318771E-2,-1.2492681E-2,-6.4472914E-2,-2.2963564E-1,-1.6003315E-1,-2.1247128E-1,-1.2956928E-1,-4.797664E-2,-8.001538E-2,-2.4513987E-1,-2.4603923E-1,-1.789902E-1,-1.6137378E-1,-2.656499E-1,-2.5544125E-1,-3.2847833E-2,-2.8045693E-1,-3.1889194E-1,8.8458486E-2,-1.18703805E-1,-9.626408E-2,1.8533944E-1,8.3563864E-2,-3.0824844E-2,-6.715323E-2,6.8825684E-2,6.133474E-2,-6.303065E-2,1.8988977E-3,-2.3032887E-1,-1.7605932E-1,-3.5841383E-2,-3.6724123E-1,-8.360972E-2,2.7340084E-2,1.8544018E-1,-7.873027E-2,4.392488E-1,3.4002823E-1,1.6454998E-1,-1.0489478E-1,1.799949E-1,6.140082E-2,-2.4508809E-1,1.694508E-1,5.5620946E-2,-4.635421E-3,8.189639E-2,-4.9733292E-2,2.2211201E-1,-2.4683444E-2,-1.426106E-1,-2.6943365E-2,1.5750577E-1,-8.6655E-2,-3.1683418E-1,1.4037476E-1,3.5657546E-1,-1.072696E-1,8.002007E-2,-3.011013E-1,-7.440563E-2,1.0528018E-1,-1.1678505E-2,3.0108476E-2,-2.3293066E-1,-1.4840537E-1,-3.1205555E-2,-2.1720023E-1,-1.0868722E-1,-3.6811063E-1,-1.949952E-1,-1.24328926E-1,-2.900046E-1,-4.4679563E-2,1.7884687E-1,5.7756156E-2,-2.3267468E-2,-5.126616E-2,-1.8384966E-1,6.190507E-1,8.057773E-2,4.249874E-1,2.1226907E-1,4.886783E-1,1.5231135E-1,2.334727E-1,8.5668993E-1,7.7166295E-1,3.3501884E-1,2.3954618E-1,4.9140118E-2,1.5422492E-1,3.985315E-2,9.06342E-1,2.5161964E-1,-3.0127987E-1,-5.9375335E-2,-2.5977483E-1,4.3161568E-1,9.423494E-1,3.957368E-1,9.192733E-2,-2.0379491E-1,5.7681777E-2,-6.7366004E-2,1.7617033E-1,7.845169E-1,7.6625325E-2,-1.276579E-1,3.2337993E-1,5.757166E-1,1.1357339E-1,-4.977458E-2,4.8342672E-1,2.7546018E-1,8.940782E-1,2.9089868E-1,2.6961256E-2,6.8524363E-3,-1.07706515E-2,1.4186071E-1,-5.4816245E-3,1.6575445E-1,5.5057414E-2,-1.55063635E-2,7.2634E-1,7.980557E-2,6.157539E-2,1.2715688E0,1.033215E0,2.5003803E-1,4.4170243E-1,6.1668395E-3,1.0472342E0,6.5896934E-1,4.8585615E-1,1.546242E0,7.9958394E-2,7.5363016E-1,4.531195E-1,-1.13925695E-1,4.3731045E-2,2.6763928E-1,-2.9624864E-1,-1.4810706E-2],"categories":[],"categories_nodes":[],"categories_segments":[],"categories_sizes":[],"default_left":[0,0,0,0,0,0,0,0,0,0,0,0,0,0,0,0,0,0,0,0,0,0,0,0,0,0,0,0,0,0,0,0,0,0,0,0,0,0,0,0,0,0,0,0,0,0,0,0,0,0,0,0,0,0,0,0,0,0,0,0,0,0,0,0,0,0,0,0,0,0,0,0,0,0,0,0,0,0,0,0,0,0,0,0,0,0,0,0,0,0,0,0,0,0,0,0,0,0,0,0,0,0,0,0,0,0,0,0,0,0,0,0,0,0,0,0,0,0,0,0,0,0,0,0,0,0,0,0,0,0,0,0,0,0,0,0,0,0,0,0,0,0,0,0,0,0,0,0,0,0,0,0,0,0,0,0,0,0,0,0,0,0,0,0,0,0,0,0,0,0,0,0,0,0,0,0,0,0,0,0,0,0,0,0,0,0,0,0,0,0,0,0,0,0,0,0,0,0,0,0,0,0,0,0,0,0,0,0,0,0,0,0,0,0,0,0,0,0,0,0,0,0,0,0,0,0,0,0,0,0,0,0,0,0,0,0,0,0,0,0,0,0,0,0,0,0,0,0,0,0,0,0,0,0,0,0,0,0,0,0,0,0,0,0,0,0,0,0,0,0,0,0,0,0,0,0,0,0,0,0,0,0,0,0,0,0,0,0,0,0,0,0,0,0,0,0,0,0,0,0,0,0,0,0,0,0,0,0,0,0,0,0,0,0,0,0,0,0,0,0,0,0,0,0,0,0,0,0,0,0,0,0,0,0,0,0,0,0,0,0,0,0,0,0,0,0,0,0,0,0,0,0,0,0,0,0,0,0,0,0,0,0,0,0,0,0,0,0,0],"id":2,"left_children":[1,3,5,7,9,11,13,15,17,19,21,23,25,27,29,31,-1,33,35,37,39,41,43,45,47,49,51,53,55,57,59,61,-1,63,65,67,69,71,73,75,77,79,81,83,85,87,89,91,-1,93,95,97,99,101,103,105,107,109,111,113,115,117,119,121,123,125,127,129,131,133,135,137,139,141,143,145,147,149,151,153,155,157,159,161,163,165,167,169,171,173,175,-1,-1,177,179,181,183,-1,-1,185,187,189,-1,191,193,195,197,-1,-1,-1,199,201,203,205,207,209,211,-1,-1,-1,213,-1,-1,215,217,219,221,223,225,227,-1,229,231,233,235,237,239,241,243,245,247,249,251,253,255,257,259,261,263,265,267,269,271,273,275,277,279,281,283,-1,285,287,289,291,293,295,297,299,301,303,-1,-1,-1,305,-1,307,309,311,313,315,317,319,321,323,325,-1,327,329,331,333,-1,335,337,339,341,343,345,-1,347,-1,349,-1,351,-1,353,355,357,-1,359,361,363,365,367,-1,-1,-1,-1,-1,-1,-1,-1,-1,-1,-1,-1,-1,-1,-1,-1,-1,-1,-1,-1,-1,-1,-1,-1,-1,-1,-1,-1,-1,-1,-1,-1,-1,-1,-1,-1,-1,-1,-1,-1,-1,-1,-1,-1,-1,-1,-1,-1,-1,-1,-1,-1,-1,-1,-1,-1,-1,-1,-1,-1,-1,-1,-1,-1,-1,-1,-1,-1,-1,-1,-1,-1,-1,-1,-1,-1,-1,-1,-1,-1,-1,-1,-1,-1,-1,-1,-1,-1,-1,-1,-1,-1,-1,-1,-1,-1,-1,-1,-1,-1,-1,-1,-1,-1,-1,-1,-1,-1,-1,-1,-1,-1,-1,-1,-1,-1,-1,-1,-1,-1,-1,-1,-1,-1,-1,-1,-1,-1,-1,-1,-1,-1,-1,-1,-1,-1,-1,-1,-1,-1,-1,-1,-1,-1,-1,-1,-1,-1,-1,-1,-1,-1,-1,-1,-1,-1],"loss_changes":[1.4393948E5,2.3554645E4,3.668807E4,1.2845664E3,6.551736E3,1.1991195E4,2.562914E4,2.7651738E3,1.5514023E3,2.1334353E3,1.0092783E3,2.5061934E3,8.0966675E3,1.5923115E3,7.2270938E3,8.975586E1,0E0,4.764983E2,8.7222266E2,9.1694507E2,5.366118E2,5.6253076E2,1.082541E3,1.553457E3,3.6980078E2,1.4420205E3,1.8901641E3,8.2271094E2,8.431183E1,2.2066484E3,3.0044375E3,5.9728516E1,0E0,7.393945E1,8.761174E1,3.0704785E2,2.254336E2,1.456242E2,8.5315283E2,5.678784E2,2.9015576E2,5.37847E2,3.887575E2,4.0871826E2,2.0132895E2,5.921914E2,9.451299E2,1.6353809E2,0E0,9.386133E2,1.2588495E3,3.773252E2,2.8618726E2,1.7328613E2,5.659365E2,3.5542267E1,6.94789E1,7.680039E2,1.4835078E3,1.9514766E3,5.464679E2,4.7789307E1,1.8930664E0,5.6288147E0,6.2745605E1,2.7937565E1,1.7242125E2,7.256885E1,2.6026794E2,5.902539E1,1.4092188E2,8.9211975E1,6.59606E1,3.3092313E2,1.23650635E2,1.9334723E2,1.0745776E2,1.3989941E2,5.826136E1,1.5472002E2,6.6171967E2,2.720147E2,1.0636278E2,8.377469E1,4.6384912E2,2.8959146E2,1.14480865E2,3.162339E2,2.334248E2,5.841699E2,4.7423535E2,0E0,0E0,4.0769287E2,6.412388E2,1.3039893E2,1.1732299E3,0E0,0E0,4.0975838E1,3.4754932E2,1.2411377E1,0E0,4.655979E2,3.9364722E2,3.3938965E1,1.0154257E1,0E0,0E0,0E0,2.5407861E2,3.838672E2,1.0476118E3,1.4594727E3,2.4159277E2,2.285423E2,1.6688943E2,0E0,0E0,0E0,4.8605957E0,0E0,0E0,1.9446167E1,4.3051025E1,2.381258E0,2.9315275E1,4.1956673E0,1.3502444E2,5.640332E1,0E0,7.212402E1,8.604724E1,5.0257812E1,4.8220825E0,1.3512695E1,2.6667969E1,3.0596207E1,4.843091E1,2.2240276E1,6.876611E1,1.9524507E2,2.4273494E2,8.406853E1,4.7499792E2,1.2370392E2,3.2727798E2,9.766626E1,5.8424706E1,3.75868E1,9.385803E1,4.8397743E1,5.329516E1,4.8578598E1,2.5518393E2,8.5913086E-1,8.9547E1,9.081882E1,1.3334912E2,0E0,5.4067326E0,3.1004822E1,7.423697E1,1.8026611E2,3.658418E2,1.2006299E2,3.641569E1,5.1914143E1,9.764299E1,2.713733E2,0E0,0E0,0E0,3.982893E2,0E0,3.6375293E2,1.4515015E2,2.211206E2,1.6368317E2,3.5551898E2,3.3800073E2,1.0216797E1,4.149504E2,1.9661743E1,4.002502E2,0E0,7.355277E0,2.622954E2,1.6345411E1,1.993164E1,0E0,1.7566479E1,2.6554785E2,8.331763E1,9.297073E-3,3.0663054E1,1.2162933E1,0E0,2.2769983E0,0E0,1.18436035E2,0E0,5.167578E2,0E0,2.5127026E2,2.8317776E2,1.0558359E3,0E0,3.2613184E2,1.1238379E2,3.3397632E2,2.0013435E1,2.352121E1,0E0,0E0,0E0,0E0,0E0,0E0,0E0,0E0,0E0,0E0,0E0,0E0,0E0,0E0,0E0,0E0,0E0,0E0,0E0,0E0,0E0,0E0,0E0,0E0,0E0,0E0,0E0,0E0,0E0,0E0,0E0,0E0,0E0,0E0,0E0,0E0,0E0,0E0,0E0,0E0,0E0,0E0,0E0,0E0,0E0,0E0,0E0,0E0,0E0,0E0,0E0,0E0,0E0,0E0,0E0,0E0,0E0,0E0,0E0,0E0,0E0,0E0,0E0,0E0,0E0,0E0,0E0,0E0,0E0,0E0,0E0,0E0,0E0,0E0,0E0,0E0,0E0,0E0,0E0,0E0,0E0,0E0,0E0,0E0,0E0,0E0,0E0,0E0,0E0,0E0,0E0,0E0,0E0,0E0,0E0,0E0,0E0,0E0,0E0,0E0,0E0,0E0,0E0,0E0,0E0,0E0,0E0,0E0,0E0,0E0,0E0,0E0,0E0,0E0,0E0,0E0,0E0,0E0,0E0,0E0,0E0,0E0,0E0,0E0,0E0,0E0,0E0,0E0,0E0,0E0,0E0,0E0,0E0,0E0,0E0,0E0,0E0,0E0,0E0,0E0,0E0,0E0,0E0,0E0,0E0,0E0,0E0,0E0,0E0,0E0,0E0,0E0,0E0,0E0,0E0,0E0],"parents":[2147483647,0,0,1,1,2,2,3,3,4,4,5,5,6,6,7,7,8,8,9,9,10,10,11,11,12,12,13,13,14,14,15,15,17,17,18,18,19,19,20,20,21,21,22,22,23,23,24,24,25,25,26,26,27,27,28,28,29,29,30,30,31,31,33,33,34,34,35,35,36,36,37,37,38,38,39,39,40,40,41,41,42,42,43,43,44,44,45,45,46,46,47,47,49,49,50,50,51,51,52,52,53,53,54,54,55,55,56,56,57,57,58,58,59,59,60,60,61,61,62,62,63,63,64,64,65,65,66,66,67,67,68,68,69,69,70,70,71,71,72,72,73,73,74,74,75,75,76,76,77,77,78,78,79,79,80,80,81,81,82,82,83,83,84,84,85,85,86,86,87,87,88,88,89,89,90,90,93,93,94,94,95,95,96,96,99,99,100,100,101,101,103,103,104,104,105,105,106,106,110,110,111,111,112,112,113,113,114,114,115,115,116,116,120,120,123,123,124,124,125,125,126,126,127,127,128,128,129,129,131,131,132,132,133,133,134,134,135,135,136,136,137,137,138,138,139,139,140,140,141,141,142,142,143,143,144,144,145,145,146,146,147,147,148,148,149,149,150,150,151,151,152,152,153,153,154,154,155,155,156,156,157,157,158,158,160,160,161,161,162,162,163,163,164,164,165,165,166,166,167,167,168,168,169,169,173,173,175,175,176,176,177,177,178,178,179,179,180,180,181,181,182,182,183,183,184,184,186,186,187,187,188,188,189,189,191,191,192,192,193,193,194,194,195,195,196,196,198,198,200,200,202,202,204,204,205,205,206,206,208,208,209,209,210,210,211,211,212,212],"right_children":[2,4,6,8,10,12,14,16,18,20,22,24,26,28,30,32,-1,34,36,38,40,42,44,46,48,50,52,54,56,58,60,62,-1,64,66,68,70,72,74,76,78,80,82,84,86,88,90,92,-1,94,96,98,100,102,104,106,108,110,112,114,116,118,120,122,124,126,128,130,132,134,136,138,140,142,144,146,148,150,152,154,156,158,160,162,164,166,168,170,172,174,176,-1,-1,178,180,182,184,-1,-1,186,188,190,-1,192,194,196,198,-1,-1,-1,200,202,204,206,208,210,212,-1,-1,-1,214,-1,-1,216,218,220,222,224,226,228,-1,230,232,234,236,238,240,242,244,246,248,250,252,254,256,258,260,262,264,266,268,270,272,274,276,278,280,282,284,-1,286,288,290,292,294,296,298,300,302,304,-1,-1,-1,306,-1,308,310,312,314,316,318,320,322,324,326,-1,328,330,332,334,-1,336,338,340,342,344,346,-1,348,-1,350,-1,352,-1,354,356,358,-1,360,362,364,366,368,-1,-1,-1,-1,-1,-1,-1,-1,-1,-1,-1,-1,-1,-1,-1,-1,-1,-1,-1,-1,-1,-1,-1,-1,-1,-1,-1,-1,-1,-1,-1,-1,-1,-1,-1,-1,-1,-1,-1,-1,-1,-1,-1,-1,-1,-1,-1,-1,-1,-1,-1,-1,-1,-1,-1,-1,-1,-1,-1,-1,-1,-1,-1,-1,-1,-1,-1,-1,-1,-1,-1,-1,-1,-1,-1,-1,-1,-1,-1,-1,-1,-1,-1,-1,-1,-1,-1,-1,-1,-1,-1,-1,-1,-1,-1,-1,-1,-1,-1,-1,-1,-1,-1,-1,-1,-1,-1,-1,-1,-1,-1,-1,-1,-1,-1,-1,-1,-1,-1,-1,-1,-1,-1,-1,-1,-1,-1,-1,-1,-1,-1,-1,-1,-1,-1,-1,-1,-1,-1,-1,-1,-1,-1,-1,-1,-1,-1,-1,-1,-1,-1,-1,-1,-1,-1,-1],"split_conditions":[3.184906E-1,-4.447113E-1,9.809681E-1,-8.094592E-1,8.554516E-2,1.7043161E-1,1.0383561E0,1.6982093E0,-4.7644463E-1,-7.394446E-2,-1.6412845E-1,1.3417108E0,3.3279617E0,4.50744E-1,4.3101937E-2,4.3101937E-2,1.5513835E0,-5.54256E-1,-4.6621674E-1,6.0348794E-2,-4.7644463E-1,6.0752857E-1,-7.394446E-2,-1.3150812E0,6.587123E-4,6.849811E-1,4.3881815E-2,-6.355799E-1,1.1041825E0,1.3417108E0,8.4231293E-1,-8.9733577E-1,-3.6000058E-1,-2.1031053E0,-7.6924103E-1,-6.842652E-1,-1.2833798E0,-1.1877515E0,-3.813303E-1,-1.0034782E0,-2.5400063E-1,7.773289E-2,9.4271034E-1,-2.7136576E-1,2.555464E-1,6.194377E-1,2.1630615E-1,-9.969125E-1,4.4670454E-1,4.2509094E-1,1.4267321E0,1.4755315E0,3.6289089E0,6.380964E-1,8.1424487E-1,4.9579316E-1,1.4267321E0,-1.0179787E0,1.4267321E0,5.1336446E0,7.2219354E-1,8.325971E-1,1.4927337E-1,-9.969125E-1,-6.842652E-1,-1.5597913E0,-1.265597E0,7.8535694E-1,9.8753744E-1,4.50744E-1,5.524206E-1,-2.7136576E-1,-2.3986537E-2,6.690531E-1,-8.943115E-3,1.2829201E-1,1.5915122E0,-2.036616E0,-1.9512679E-1,-9.5188165E-1,-1.5597913E0,1.633968E-2,-1.1108369E0,-3.4961203E-1,2.9121095E-3,1.0046786E0,1.7191745E-1,1.0155729E0,4.50744E-1,1.2189244E0,4.345197E-2,2.3360427E-1,1.2105231E0,-9.8395836E-1,9.157644E-1,-8.565917E-1,2.2075224E0,1.2644691E0,1.2440186E-1,-2.8754088E-1,1.1888328E0,1.2328781E0,7.82772E-1,-1.4632196E0,2.3206086E0,-7.81465E-2,-5.017687E-1,-2.517102E-1,9.566321E-2,1.1429876E0,-3.3470964E0,-8.4820575E-1,-7.81465E-2,-1.5977823E0,-3.3470964E0,-9.5188165E-1,1.4907428E0,-3.4860587E-1,-4.4050216E-4,-2.5042984E-1,3.7635168E-1,-6.81985E-2,-2.94649E-1,6.690531E-1,-1.1453084E0,3.2253325E-1,-1.0336573E-1,1.6135012E0,-4.178451E-2,-1.2301948E0,-2.4712923E-1,3.255017E-2,-8.743745E-1,4.2065716E-1,5.389617E-1,1.9649518E0,5.953767E-2,1.3620926E0,-2.7415645E0,-9.7553545E-1,-1.5977823E0,9.8753744E-1,-7.414685E-2,-6.491252E-1,9.18263E-2,8.387054E-1,-9.573611E-1,6.690531E-1,-7.2734094E-1,-3.3004642E-1,1.0155729E0,2.5830117E-1,-1.0225648E0,-1.0107096E0,-3.6025118E-2,2.977613E-1,-9.231131E-2,-6.423626E-1,8.387054E-1,5.3883183E-1,-6.423626E-1,-1.2774521E0,-4.539999E-1,-8.8030213E-1,9.18263E-2,1.2315122E0,2.977613E-1,-5.446119E-1,5.7540417E-1,-2.3244761E-1,-1.9820541E-1,9.660412E-1,8.7033704E-2,-8.863596E-1,7.005948E-1,8.4231293E-1,-2.916496E0,-1.1010013E0,3.402045E-1,-1.2774521E0,5.099774E-1,2.465944E0,5.206095E-1,3.5998926E-1,1.1888328E0,2.3321633E-1,1.0155729E0,-9.969125E-1,-9.969125E-1,2.1124211E-1,2.666861E-1,1.0283891E0,-8.863596E-1,4.723266E0,-7.6924103E-1,-1.2171794E-1,-3.0106897E0,-8.957291E-2,1.011483E0,-5.580163E-2,1.0155729E0,1.5602233E0,-2.449625E0,-2.1964434E-1,-8.422773E-2,9.344096E-1,-3.23516E-1,4.766929E-1,-2.2763653E0,1.3417108E0,1.2798838E-1,1.2739555E0,-1.8698204E-1,-3.0577365E-1,-2.1782553E-1,-1.795271E-1,-2.7041727E-1,-8.290021E-2,-1.5557529E-1,1.1743831E-2,4.9607843E-2,-1.0019197E-2,-9.943638E-2,8.318771E-2,-1.2492681E-2,-6.4472914E-2,-2.2963564E-1,-1.6003315E-1,-2.1247128E-1,-1.2956928E-1,-4.797664E-2,-8.001538E-2,-2.4513987E-1,-2.4603923E-1,-1.789902E-1,-1.6137378E-1,-2.656499E-1,-2.5544125E-1,-3.2847833E-2,-2.8045693E-1,-3.1889194E-1,8.8458486E-2,-1.18703805E-1,-9.626408E-2,1.8533944E-1,8.3563864E-2,-3.0824844E-2,-6.715323E-2,6.8825684E-2,6.133474E-2,-6.303065E-2,1.8988977E-3,-2.3032887E-1,-1.7605932E-1,-3.5841383E-2,-3.6724123E-1,-8.360972E-2,2.7340084E-2,1.8544018E-1,-7.873027E-2,4.392488E-1,3.4002823E-1,1.6454998E-1,-1.0489478E-1,1.799949E-1,6.140082E-2,-2.4508809E-1,1.694508E-1,5.5620946E-2,-4.635421E-3,8.189639E-2,-4.9733292E-2,2.2211201E-1,-2.4683444E-2,-1.426106E-1,-2.6943365E-2,1.5750577E-1,-8.6655E-2,-3.1683418E-1,1.4037476E-1,3.5657546E-1,-1.072696E-1,8.002007E-2,-3.011013E-1,-7.440563E-2,1.0528018E-1,-1.1678505E-2,3.0108476E-2,-2.3293066E-1,-1.4840537E-1,-3.1205555E-2,-2.1720023E-1,-1.0868722E-1,-3.6811063E-1,-1.949952E-1,-1.24328926E-1,-2.900046E-1,-4.4679563E-2,1.7884687E-1,5.7756156E-2,-2.3267468E-2,-5.126616E-2,-1.8384966E-1,6.190507E-1,8.057773E-2,4.249874E-1,2.1226907E-1,4.886783E-1,1.5231135E-1,2.334727E-1,8.5668993E-1,7.7166295E-1,3.3501884E-1,2.3954618E-1,4.9140118E-2,1.5422492E-1,3.985315E-2,9.06342E-1,2.5161964E-1,-3.0127987E-1,-5.9375335E-2,-2.5977483E-1,4.3161568E-1,9.423494E-1,3.957368E-1,9.192733E-2,-2.0379491E-1,5.7681777E-2,-6.7366004E-2,1.7617033E-1,7.845169E-1,7.6625325E-2,-1.276579E-1,3.2337993E-1,5.757166E-1,1.1357339E-1,-4.977458E-2,4.8342672E-1,2.7546018E-1,8.940782E-1,2.9089868E-1,2.6961256E-2,6.8524363E-3,-1.07706515E-2,1.4186071E-1,-5.4816245E-3,1.6575445E-1,5.5057414E-2,-1.55063635E-2,7.2634E-1,7.980557E-2,6.157539E-2,1.2715688E0,1.033215E0,2.5003803E-1,4.4170243E-1,6.1668395E-3,1.0472342E0,6.5896934E-1,4.8585615E-1,1.546242E0,7.9958394E-2,7.5363016E-1,4.531195E-1,-1.13925695E-1,4.3731045E-2,2.6763928E-1,-2.9624864E-1,-1.4810706E-2],"split_indices":[3,3,2,3,8,8,3,2,1,3,1,3,3,1,8,8,0,3,8,1,1,2,3,8,8,1,10,13,8,3,5,3,0,5,1,3,2,8,8,1,8,3,13,3,1,3,2,6,0,8,1,1,3,3,13,5,1,8,1,3,8,13,5,6,3,1,2,2,1,1,8,3,5,5,2,3,2,8,13,10,1,3,1,3,2,2,13,5,1,3,13,0,0,1,2,2,1,0,0,2,5,11,0,10,2,11,9,0,0,0,10,8,11,10,10,10,2,0,0,0,2,0,0,5,8,5,13,8,8,8,0,2,2,10,13,2,9,5,10,8,10,1,2,2,2,2,2,5,13,1,5,3,2,2,3,8,6,1,2,0,1,2,10,2,2,8,8,6,10,1,0,0,0,1,0,5,10,9,8,2,8,13,13,6,5,0,5,6,6,9,0,2,1,13,1,13,10,0,9,0,5,0,5,0,8,8,9,0,5,3,8,8,9,0,0,0,0,0,0,0,0,0,0,0,0,0,0,0,0,0,0,0,0,0,0,0,0,0,0,0,0,0,0,0,0,0,0,0,0,0,0,0,0,0,0,0,0,0,0,0,0,0,0,0,0,0,0,0,0,0,0,0,0,0,0,0,0,0,0,0,0,0,0,0,0,0,0,0,0,0,0,0,0,0,0,0,0,0,0,0,0,0,0,0,0,0,0,0,0,0,0,0,0,0,0,0,0,0,0,0,0,0,0,0,0,0,0,0,0,0,0,0,0,0,0,0,0,0,0,0,0,0,0,0,0,0,0,0,0,0,0,0,0,0,0,0,0,0,0,0,0,0,0,0,0,0,0,0,0],"split_type":[0,0,0,0,0,0,0,0,0,0,0,0,0,0,0,0,0,0,0,0,0,0,0,0,0,0,0,0,0,0,0,0,0,0,0,0,0,0,0,0,0,0,0,0,0,0,0,0,0,0,0,0,0,0,0,0,0,0,0,0,0,0,0,0,0,0,0,0,0,0,0,0,0,0,0,0,0,0,0,0,0,0,0,0,0,0,0,0,0,0,0,0,0,0,0,0,0,0,0,0,0,0,0,0,0,0,0,0,0,0,0,0,0,0,0,0,0,0,0,0,0,0,0,0,0,0,0,0,0,0,0,0,0,0,0,0,0,0,0,0,0,0,0,0,0,0,0,0,0,0,0,0,0,0,0,0,0,0,0,0,0,0,0,0,0,0,0,0,0,0,0,0,0,0,0,0,0,0,0,0,0,0,0,0,0,0,0,0,0,0,0,0,0,0,0,0,0,0,0,0,0,0,0,0,0,0,0,0,0,0,0,0,0,0,0,0,0,0,0,0,0,0,0,0,0,0,0,0,0,0,0,0,0,0,0,0,0,0,0,0,0,0,0,0,0,0,0,0,0,0,0,0,0,0,0,0,0,0,0,0,0,0,0,0,0,0,0,0,0,0,0,0,0,0,0,0,0,0,0,0,0,0,0,0,0,0,0,0,0,0,0,0,0,0,0,0,0,0,0,0,0,0,0,0,0,0,0,0,0,0,0,0,0,0,0,0,0,0,0,0,0,0,0,0,0,0,0,0,0,0,0,0,0,0,0,0,0,0,0,0,0,0,0,0,0,0,0,0,0,0,0,0,0,0,0,0,0,0,0,0,0,0,0,0,0,0,0,0,0],"sum_hessian":[6.192E3,4.699E3,1.493E3,2.64E3,2.059E3,9.51E2,5.42E2,4.11E2,2.229E3,1.129E3,9.3E2,3.12E2,6.39E2,2.14E2,3.28E2,4.1E2,1E0,3.54E2,1.875E3,7.01E2,4.28E2,3.14E2,6.16E2,2.93E2,1.9E1,6.03E2,3.6E1,1.52E2,6.2E1,1.85E2,1.43E2,2.48E2,1.62E2,2.18E2,1.36E2,5.69E2,1.306E3,3.46E2,3.55E2,1.69E2,2.59E2,2.21E2,9.3E1,3.7E2,2.46E2,4.5E1,2.48E2,1.5E1,4E0,4.94E2,1.09E2,1.7E1,1.9E1,3.9E1,1.13E2,5.8E1,4E0,4.8E1,1.37E2,1.2E2,2.3E1,8.3E1,1.65E2,1.4E1,2.04E2,7.1E1,6.5E1,3.99E2,1.7E2,3.1E2,9.96E2,1.13E2,2.33E2,2.49E2,1.06E2,7.1E1,9.8E1,1.75E2,8.4E1,1.89E2,3.2E1,8.7E1,6E0,7.5E1,2.95E2,5.9E1,1.87E2,2.4E1,2.1E1,1.28E2,1.2E2,1E0,1.4E1,8E1,4.14E2,5.4E1,5.5E1,1.6E1,1E0,5E0,1.4E1,2.5E1,1.4E1,1.02E2,1.1E1,5.2E1,6E0,2E0,2E0,2.2E1,2.6E1,1.24E2,1.3E1,1.03E2,1.7E1,1.4E1,9E0,8.2E1,1E0,6.7E1,9.8E1,1E0,1.3E1,5.1E1,1.53E2,2E1,5.1E1,1.2E1,5.3E1,2.84E2,1.15E2,1.13E2,5.7E1,2.49E2,6.1E1,5.65E2,4.31E2,6.9E1,4.4E1,3.2E1,2.01E2,2.05E2,4.4E1,4.5E1,6.1E1,5.8E1,1.3E1,9.2E1,6E0,3E0,1.72E2,7.6E1,8E0,4.2E1,1.47E2,5E0,2.7E1,4.5E1,4.2E1,1E0,5E0,1.2E1,6.3E1,1.61E2,1.34E2,5.1E1,8E0,8.6E1,1.01E2,2.3E1,1E0,2E1,1E0,1.2E2,8E0,1.06E2,1.4E1,2.1E1,5.9E1,4.02E2,1.2E1,4.5E1,9E0,5E0,5E1,2E0,3E0,1.2E1,2E0,2.1E1,4E0,1E1,9.2E1,9E0,2E0,1.2E1,4E1,1E0,5E0,1E0,2.5E1,5.7E1,6.7E1,2E0,1.1E1,1.5E1,8.8E1,2E0,1.5E1,5E0,9E0,4E0,5E0,8.4E1,1.4E1,3.6E1,1.5E1,2.9E1,1.24E2,7E0,1.3E1,4E1,1.1E1,1.1E1,1E0,3.3E1,2E1,9.9E1,1.85E2,4.8E1,6.5E1,1.1E1,4.6E1,2E2,4.9E1,5.8E1,3E0,5.64E2,1E0,2.55E2,1.76E2,6.8E1,1E0,1E0,4.3E1,4E0,2.8E1,9E0,1.92E2,1.67E2,3.8E1,2.3E1,2.1E1,1.7E1,2.8E1,2.5E1,3.6E1,4.1E1,1.7E1,4E0,9E0,8E1,1.2E1,2E0,4E0,1E0,2E0,1.5E2,2.2E1,5.4E1,2.2E1,2E0,6E0,1.3E1,2.9E1,1.26E2,2.1E1,1E0,4E0,9E0,1.8E1,3.8E1,7E0,3.3E1,9E0,4E0,1E0,1E0,1.1E1,1.9E1,4.4E1,8.5E1,7.6E1,7.6E1,5.8E1,3.3E1,1.8E1,2E0,6E0,2.9E1,5.7E1,8.5E1,1.6E1,2E1,3E0,3.1E1,8.9E1,9.6E1,1E1,2E0,1.2E1,4E0,1.7E1,4.3E1,1.6E1,8.6E1,3.16E2,2E0,1E1,4.4E1,1E0,7E0,2E0,2E0,3E0,3.4E1,1.6E1,1E0,2E0,3E0,9E0,1E0,1E0,6E0,1.5E1,1E0,9E0,2.3E1,6.9E1,7E0,2E0,1E0,1E0,7E0,5E0,1E0,3.9E1,4E0,1E0,2.4E1,1E0,1E0,6.6E1,9E0,2E0,9E0,6E0,3.8E1,5E1,2E0,1.3E1,1E0,4E0,5E0,4E0,3E0,1E0,4E0,1E0],"tree_param":{"num_deleted":"0","num_feature":"14","num_nodes":"369","size_leaf_vector":"1"}},{"base_weights":[7.364325E-2,-2.5875695E0,8.583685E0,-4.422681E0,-2.3819165E-1,4.685657E0,1.5334939E1,-4.44951E0,1.4377091E1,1.7991631E0,-1.6604581E0,9.327065E0,2.4092267E0,6.707187E0,2.0584503E1,-6.195752E0,-4.123523E0,-9.9852973E-1,1.5125989E0,7.575803E-1,3.7834237E0,-2.5803108E0,-3.1541947E-1,8.517726E0,1.99439E1,1.5254201E0,1.6091345E1,8.64245E0,2.2079828E0,2.453807E1,1.5630589E1,-5.6817646E0,-3.4449613E-1,-2.336852E0,-4.4692516E0,-1.2093163E-2,-6.279657E-2,1.6429604E0,-3.8339607E-3,4.6772547E0,2.9178114E0,-5.131024E-1,-3.881074E0,2.8852126E-1,-3.31677E0,6.09139E0,1.069317E1,2.0880922E1,3.0085325E-2,2.4176044E0,-2.2699935E0,2.3062347E1,8.664324E0,1.0606218E1,5.905815E0,2.5904346E0,-1.8570486E0,1.9309093E1,2.7436874E1,1.3674746E1,2.5920729E1,-5.28663E0,-3.2481885E-1,-3.0588257E0,-1.1650025E0,-3.5404167E0,-4.893438E0,2.4686847E0,1.0223389E0,4.7221616E-1,-1.96445E0,3.1593773E0,6.0686812E0,2.5362399E0,5.039925E0,-3.765775E-1,-4.1616173E0,-3.2288148E0,-5.2696857E0,-9.4903386E-1,1.5246825E0,-2.00317E0,-5.347721E0,9.062974E0,4.8292212E0,1.211032E1,6.7607265E0,1.293739E0,1.5395453E1,3.9436781E0,1.2317482E0,-5.386341E0,1.2346519E0,2.407405E1,1.2129181E-1,1.9781512E0,1.076117E1,9.120572E0,1.4487354E1,1.082186E1,4.866829E0,2.7560625E0,2.835661E-1,-4.1726894E0,9.2474446E-2,1.1884342E0,1.5045517E1,1.6412448E0,2.5433489E1,1.5091562E1,5.1985145E0,2.7217417E1,4.1018364E-1,-2.658998E-1,-4.2948723E-4,-4.043759E0,-2.7064447E0,-3.7239638E-1,-2.3472617E0,-3.9956799E0,-2.5581648E0,-4.177691E0,-5.1118093E0,1.92942E0,4.3206573E0,8.7935835E-1,3.797177E0,7.7083856E-1,-1.1590583E0,7.498305E-2,-4.7410784E0,4.9905005E0,1.6612726E0,6.8398595E0,3.5169187E0,3.135771E0,6.789579E-1,6.977339E-2,2.57351E-1,-1.1633354E0,2.1972735E-1,3.3397947E-2,-2.726253E-1,-1.2201991E0,-3.4606366E0,-3.8719494E0,-6.6518207E0,-5.041054E0,-6.0308933E-1,2.7916594E0,-1.5340585E-1,-2.315689E0,3.483826E-1,-3.189147E-1,1.4930321E0,1.0049817E1,3.8593738E0,4.2751617E0,6.352307E-1,1.4326314E1,1.0199385E1,7.4599752E0,9.428825E-2,1.6286777E1,1.3977213E-1,2.9050913E0,1.1471473E1,3.7700741E0,2.7686E-1,-5.7646847E0,-1.0204693E0,1.1837005E1,-5.96273E-1,3.4974855E-1,1.2333617E0,2.2544245E-1,-4.1441E-1,1.2569833E1,-6.6342336E-1,1.0496229E1,5.706881E0,7.824892E-1,5.6345873E0,1.0119987E-2,5.989656E-1,5.8836184E0,9.024961E-1,1.6690279E0,3.060024E0,-1.2825966E-2,3.672836E-2,-5.2289154E-2,-2.4331987E-1,-5.4406594E-2,1.551097E1,-2.186878E-1,2.5821909E1,6.678533E0,1.6774738E1,8.108598E0,-1.3642975E0,9.393219E0,2.8599268E1,-7.323957E-2,-2.0799546E-1,-1.0384428E-1,-1.6019703E-1,-4.7017734E-2,8.910461E-3,2.637121E-2,-1.4918296E-1,-1.8461643E-1,-2.376111E-1,-7.701401E-2,-2.261077E-1,-2.2003725E-1,-1.6362391E-1,-2.3793267E-1,-2.7880198E-1,1.0028429E-1,-1.1573621E-1,2.286067E-1,-3.658266E-2,-6.988832E-2,5.1232647E-2,2.2702908E-2,2.1393438E-1,4.626086E-2,-7.0622064E-2,-1.8582068E-1,-1.1862211E-2,7.261174E-2,-1.0473128E-1,-3.406114E-1,-9.6482374E-2,7.839051E-2,2.874617E-1,-5.7034064E-2,2.0028149E-1,3.4832963E-1,-9.3102455E-5,-2.5273964E-1,2.1369734E-1,8.372105E-2,1.7109013E-1,9.862725E-2,-1.8901484E-2,-4.3998342E-2,-1.6812971E-1,-3.5320576E-2,4.9537033E-2,-1.6862741E-1,4.6365694E-4,-1.3469517E-1,-2.1093869E-1,-2.4509834E-1,-9.868498E-2,-3.4694073E-1,-1.7980695E-1,-2.424035E-2,-2.8286585E-1,3.2782834E-3,-9.116828E-2,2.7440482E-1,4.321364E-2,-1.8908542E-1,7.3080406E-2,6.397237E-2,-1.5071532E-1,-4.4446565E-2,1.688659E-1,4.7677066E-2,5.152139E-1,-1.0919523E-2,3.1748554E-1,5.1477116E-1,1.8362175E-1,7.462819E-1,2.0011686E-1,4.3763247E-1,8.0556405E-1,-1.2831216E-1,3.900156E-1,-2.0814672E-1,1.09966375E-1,8.954571E-1,2.995381E-1,2.479173E-1,1.0325172E-1,3.97678E-1,1.064297E0,4.7779033E-1,6.486581E-2,-9.938266E-2,1.1507509E-1,-2.9142782E-1,-5.789094E-2,4.277875E-1,-2.3234315E-1,6.7909336E-1,-9.42595E-3,1.2413458E-1,-1.5893087E-1,5.6239724E-2,-6.512048E-2,1.5445775E-1,7.00638E-1,7.4709706E-2,-1.2446646E-1,1.1349219E-1,5.4210776E-1,3.8633853E-1,1.8581954E-1,8.5146956E-2,3.188745E-1,7.720375E-3,3.417099E-1,-1.3680442E-1,1.20968364E-1,1.4564462E-1,4.517998E-4,-5.344582E-3,1.5709345E-1,1.44581795E-2,-1.0493851E-2,8.051373E-1,1.7182995E-1,1.3490387E0,7.6285243E-1,4.405137E-1,-7.393726E-2,9.457866E-1,5.7725877E-1,7.23485E-1,2.0585938E-1,-1.6656679E-1,2.609483E-1,8.504527E-1,-1.4596125E-1,3.1393918E-1,1.4745237E0],"categories":[],"categories_nodes":[],"categories_segments":[],"categories_sizes":[],"default_left":[0,0,0,0,0,0,0,0,0,0,0,0,0,0,0,0,0,0,0,0,0,0,0,0,0,0,0,0,0,0,0,0,0,0,0,0,0,0,0,0,0,0,0,0,0,0,0,0,0,0,0,0,0,0,0,0,0,0,0,0,0,0,0,0,0,0,0,0,0,0,0,0,0,0,0,0,0,0,0,0,0,0,0,0,0,0,0,0,0,0,0,0,0,0,0,0,0,0,0,0,0,0,0,0,0,0,0,0,0,0,0,0,0,0,0,0,0,0,0,0,0,0,0,0,0,0,0,0,0,0,0,0,0,0,0,0,0,0,0,0,0,0,0,0,0,0,0,0,0,0,0,0,0,0,0,0,0,0,0,0,0,0,0,0,0,0,0,0,0,0,0,0,0,0,0,0,0,0,0,0,0,0,0,0,0,0,0,0,0,0,0,0,0,0,0,0,0,0,0,0,0,0,0,0,0,0,0,0,0,0,0,0,0,0,0,0,0,0,0,0,0,0,0,0,0,0,0,0,0,0,0,0,0,0,0,0,0,0,0,0,0,0,0,0,0,0,0,0,0,0,0,0,0,0,0,0,0,0,0,0,0,0,0,0,0,0,0,0,0,0,0,0,0,0,0,0,0,0,0,0,0,0,0,0,0,0,0,0,0,0,0,0,0,0,0,0,0,0,0,0,0,0,0,0,0,0,0,0,0,0,0,0,0,0,0,0,0,0,0,0,0,0,0,0,0,0,0,0,0,0,0,0,0,0,0,0,0,0,0,0,0],"id":3,"left_children":[1,3,5,7,9,11,13,15,17,19,21,23,25,27,29,31,33,35,-1,37,39,41,43,45,47,49,51,53,55,57,59,61,-1,63,65,-1,-1,67,69,71,73,75,77,79,81,83,85,87,-1,89,91,93,95,97,99,101,103,105,107,109,111,113,-1,115,117,119,121,123,125,127,129,131,133,135,137,139,141,143,145,147,149,151,153,155,157,159,161,-1,163,165,167,169,171,173,-1,175,177,179,181,183,185,187,189,191,-1,-1,193,-1,195,197,199,201,-1,-1,-1,203,205,207,209,211,213,215,217,219,221,223,225,227,229,231,233,235,237,239,241,243,245,-1,-1,247,249,-1,-1,251,253,255,257,259,261,263,265,267,-1,-1,269,271,273,275,-1,277,279,281,283,285,-1,287,289,291,293,295,297,299,301,-1,-1,-1,303,305,307,309,311,-1,313,-1,-1,315,317,319,321,323,-1,-1,-1,-1,325,-1,327,329,331,333,335,337,339,-1,-1,-1,-1,-1,-1,-1,-1,-1,-1,-1,-1,-1,-1,-1,-1,-1,-1,-1,-1,-1,-1,-1,-1,-1,-1,-1,-1,-1,-1,-1,-1,-1,-1,-1,-1,-1,-1,-1,-1,-1,-1,-1,-1,-1,-1,-1,-1,-1,-1,-1,-1,-1,-1,-1,-1,-1,-1,-1,-1,-1,-1,-1,-1,-1,-1,-1,-1,-1,-1,-1,-1,-1,-1,-1,-1,-1,-1,-1,-1,-1,-1,-1,-1,-1,-1,-1,-1,-1,-1,-1,-1,-1,-1,-1,-1,-1,-1,-1,-1,-1,-1,-1,-1,-1,-1,-1,-1,-1,-1,-1,-1,-1,-1,-1,-1,-1,-1,-1,-1,-1,-1,-1,-1,-1,-1,-1,-1,-1,-1,-1,-1,-1,-1,-1,-1,-1,-1],"loss_changes":[1.3984498E5,2.0279633E4,3.8639836E4,1.3960664E3,5.9837603E3,9.846025E3,2.4229E4,1.4761367E3,1.00655255E3,1.7518232E3,1.5036665E3,2.4680605E3,7.569447E3,1.7658818E3,6.1580625E3,1.0820996E2,1.3645625E3,2.8053784E-1,0E0,3.7617703E2,2.1227637E2,1.9394292E3,8.9821277E2,1.449752E3,3.68042E2,2.0067372E3,1.767584E3,7.058613E2,1.0275531E2,2.2592578E3,2.6845508E3,4.3873535E1,0E0,3.0355054E2,7.1708984E2,0E0,0E0,1.296914E2,2.8186646E2,2.807329E2,1.09487915E2,1.3790451E2,3.842256E2,6.332617E2,2.1071979E2,4.738213E2,7.540547E2,1.4951855E2,0E0,8.619907E2,1.2408015E3,3.382832E2,2.5911047E2,3.4067773E2,2.6400952E2,2.1379211E1,5.92154E1,9.543418E2,4.1728906E2,1.4707402E3,3.0510645E2,2.7932129E1,0E0,6.6799805E1,1.3031514E2,2.5272217E2,1.7823828E2,1.01520996E2,5.577632E1,1.1926729E2,3.3445758E2,1.837345E2,1.1959863E2,1.4262573E2,1.4041138E0,1.2739459E2,6.5986496E1,1.3733228E2,2.4470483E2,2.8999152E2,4.4053076E2,1.6191966E2,2.3511963E2,1.6661963E2,3.7766602E2,3.1545312E2,1.9507959E2,0E0,8.92395E1,1.6006926E3,6.558108E2,9.322522E1,1.0553121E3,9.8125E0,0E0,3.819761E1,3.1828772E2,2.3125586E2,1.2792432E2,1.2049048E2,2.083274E2,1.27352295E1,6.7778724E-1,3.5874481E0,0E0,0E0,3.022373E2,0E0,1.1433594E3,1.4456387E3,3.9302917E2,2.4859863E2,0E0,0E0,0E0,1.0980896E1,4.596399E1,2.674887E1,1.0402246E2,7.425195E1,3.708673E2,4.6979492E1,1.3314844E2,3.280307E1,3.3838135E1,4.8744324E1,9.325447E0,7.073949E1,8.869974E1,1.0762528E2,1.3242719E2,7.149036E1,2.6732034E2,4.7701904E1,1.4489543E2,3.5233765E1,4.586676E1,0E0,0E0,6.9955536E1,1.1138002E2,0E0,0E0,8.735763E1,1.467456E2,1.3110156E2,3.5557617E1,4.218283E1,1.5678076E2,6.085118E2,5.329057E2,1.3194952E2,0E0,0E0,2.5443705E1,6.655786E1,8.262677E1,3.032766E2,0E0,2.3725879E2,3.892661E2,1.4968457E2,5.3963757E1,7.6453125E1,0E0,3.088584E2,6.938618E2,1.0462999E3,9.123706E2,9.435181E0,2.4812027E2,1.7042358E2,3.81586E2,0E0,0E0,0E0,6.932195E0,1.3455127E2,1.5538358E1,9.775586E1,5.16958E1,0E0,8.228607E-1,0E0,0E0,2.2767957E2,7.285077E1,2.8880947E1,1.0962921E1,2.987182E-1,0E0,0E0,0E0,0E0,2.0903809E2,0E0,6.657539E2,3.6081226E2,8.004922E2,2.9588232E2,1.08032845E2,3.3096188E2,1.9278613E2,0E0,0E0,0E0,0E0,0E0,0E0,0E0,0E0,0E0,0E0,0E0,0E0,0E0,0E0,0E0,0E0,0E0,0E0,0E0,0E0,0E0,0E0,0E0,0E0,0E0,0E0,0E0,0E0,0E0,0E0,0E0,0E0,0E0,0E0,0E0,0E0,0E0,0E0,0E0,0E0,0E0,0E0,0E0,0E0,0E0,0E0,0E0,0E0,0E0,0E0,0E0,0E0,0E0,0E0,0E0,0E0,0E0,0E0,0E0,0E0,0E0,0E0,0E0,0E0,0E0,0E0,0E0,0E0,0E0,0E0,0E0,0E0,0E0,0E0,0E0,0E0,0E0,0E0,0E0,0E0,0E0,0E0,0E0,0E0,0E0,0E0,0E0,0E0,0E0,0E0,0E0,0E0,0E0,0E0,0E0,0E0,0E0,0E0,0E0,0E0,0E0,0E0,0E0,0E0,0E0,0E0,0E0,0E0,0E0,0E0,0E0,0E0,0E0,0E0,0E0,0E0,0E0,0E0,0E0,0E0,0E0,0E0,0E0,0E0,0E0,0E0,0E0,0E0,0E0,0E0,0E0,0E0,0E0,0E0,0E0,0E0,0E0,0E0],"parents":[2147483647,0,0,1,1,2,2,3,3,4,4,5,5,6,6,7,7,8,8,9,9,10,10,11,11,12,12,13,13,14,14,15,15,16,16,17,17,19,19,20,20,21,21,22,22,23,23,24,24,25,25,26,26,27,27,28,28,29,29,30,30,31,31,33,33,34,34,37,37,38,38,39,39,40,40,41,41,42,42,43,43,44,44,45,45,46,46,47,47,49,49,50,50,51,51,52,52,53,53,54,54,55,55,56,56,57,57,58,58,59,59,60,60,61,61,63,63,64,64,65,65,66,66,67,67,68,68,69,69,70,70,71,71,72,72,73,73,74,74,75,75,76,76,77,77,78,78,79,79,80,80,81,81,82,82,83,83,84,84,85,85,86,86,88,88,89,89,90,90,91,91,92,92,93,93,95,95,96,96,97,97,98,98,99,99,100,100,101,101,102,102,103,103,106,106,108,108,109,109,110,110,111,111,115,115,116,116,117,117,118,118,119,119,120,120,121,121,122,122,123,123,124,124,125,125,126,126,127,127,128,128,129,129,130,130,131,131,132,132,133,133,134,134,135,135,136,136,139,139,140,140,143,143,144,144,145,145,146,146,147,147,148,148,149,149,150,150,151,151,154,154,155,155,156,156,157,157,159,159,160,160,161,161,162,162,163,163,165,165,166,166,167,167,168,168,169,169,170,170,171,171,172,172,176,176,177,177,178,178,179,179,180,180,182,182,185,185,186,186,187,187,188,188,189,189,194,194,196,196,197,197,198,198,199,199,200,200,201,201,202,202],"right_children":[2,4,6,8,10,12,14,16,18,20,22,24,26,28,30,32,34,36,-1,38,40,42,44,46,48,50,52,54,56,58,60,62,-1,64,66,-1,-1,68,70,72,74,76,78,80,82,84,86,88,-1,90,92,94,96,98,100,102,104,106,108,110,112,114,-1,116,118,120,122,124,126,128,130,132,134,136,138,140,142,144,146,148,150,152,154,156,158,160,162,-1,164,166,168,170,172,174,-1,176,178,180,182,184,186,188,190,192,-1,-1,194,-1,196,198,200,202,-1,-1,-1,204,206,208,210,212,214,216,218,220,222,224,226,228,230,232,234,236,238,240,242,244,246,-1,-1,248,250,-1,-1,252,254,256,258,260,262,264,266,268,-1,-1,270,272,274,276,-1,278,280,282,284,286,-1,288,290,292,294,296,298,300,302,-1,-1,-1,304,306,308,310,312,-1,314,-1,-1,316,318,320,322,324,-1,-1,-1,-1,326,-1,328,330,332,334,336,338,340,-1,-1,-1,-1,-1,-1,-1,-1,-1,-1,-1,-1,-1,-1,-1,-1,-1,-1,-1,-1,-1,-1,-1,-1,-1,-1,-1,-1,-1,-1,-1,-1,-1,-1,-1,-1,-1,-1,-1,-1,-1,-1,-1,-1,-1,-1,-1,-1,-1,-1,-1,-1,-1,-1,-1,-1,-1,-1,-1,-1,-1,-1,-1,-1,-1,-1,-1,-1,-1,-1,-1,-1,-1,-1,-1,-1,-1,-1,-1,-1,-1,-1,-1,-1,-1,-1,-1,-1,-1,-1,-1,-1,-1,-1,-1,-1,-1,-1,-1,-1,-1,-1,-1,-1,-1,-1,-1,-1,-1,-1,-1,-1,-1,-1,-1,-1,-1,-1,-1,-1,-1,-1,-1,-1,-1,-1,-1,-1,-1,-1,-1,-1,-1,-1,-1,-1,-1,-1],"split_conditions":[3.184906E-1,-4.447113E-1,9.809681E-1,2.6229167E0,-2.9644385E-1,1.7043161E-1,1.0383561E0,-8.094592E-1,1.1549393E-2,-7.394446E-2,-7.394446E-2,1.3417108E0,3.3279617E0,4.50744E-1,4.3101937E-2,-8.422773E-2,-4.7644463E-1,-1.3938733E0,1.5125989E0,-2.3244761E-1,-2.3244761E-1,6.0348794E-2,1.4602735E0,2.1630615E-1,1.4852914E0,6.849811E-1,4.3881815E-2,-1.22363046E-1,1.401285E0,1.5945064E0,5.1336446E0,6.690531E-1,-3.4449613E-1,-5.54256E-1,-4.6621674E-1,-1.2093163E-2,-6.279657E-2,-1.1453084E0,6.690531E-1,7.773289E-2,1.4492495E0,2.244076E0,6.690531E-1,-3.6459985E-1,7.142256E-1,-8.863596E-1,8.9205396E-1,-4.6621674E-1,3.0085325E-2,8.919664E-1,1.4267321E0,1.4755315E0,3.6289089E0,7.699112E-1,-1.1108369E0,2.528075E0,1.4267321E0,-9.7553545E-1,-9.0455484E-1,8.4231293E-1,3.2253325E-1,3.773468E0,-3.2481885E-1,-6.842652E-1,-1.9512679E-1,-6.842652E-1,-1.2833798E0,-1.9311951E-1,-3.983656E-1,9.8753744E-1,-7.414685E-2,1.7481287E-1,2.5830117E-1,1.2328781E0,-1.8244E0,1.4927337E-1,-1.5597913E0,-3.2854572E-1,-1.3342297E-1,-1.4329128E0,7.4979126E-1,1.7502077E0,1.5915122E0,1.0155729E0,1.2189244E0,-6.0960895E-1,6.690531E-1,1.293739E0,8.4231293E-1,1.4909805E0,-1.2774521E0,-5.9577674E-1,2.2075224E0,-3.0106897E0,1.2129181E-1,-2.8754088E-1,1.1888328E0,-6.2284285E-1,1.4927337E-1,1.0995204E0,5.2830726E-1,-7.81465E-2,2.419705E0,-3.3470964E0,9.2474446E-2,1.1884342E0,-3.3470964E0,1.6412448E0,-1.5272974E0,-1.2613757E0,7.2219354E-1,-2.2763653E0,4.1018364E-1,-2.658998E-1,-4.2948723E-4,-1.5597913E0,-5.511032E-1,1.4927337E-1,-1.265597E0,7.8535694E-1,9.8753744E-1,4.50744E-1,5.524206E-1,1.3620926E0,1.2951316E0,-1.7659855E0,-1.0604218E0,3.0067548E-1,-9.922504E-1,1.1888328E0,9.18263E-2,-2.5215596E-1,8.742711E-1,5.022573E-1,-2.3986537E-2,-4.831521E-1,-5.935464E-1,6.977339E-2,2.57351E-1,1.0520995E0,-2.7136576E-1,3.3397947E-2,-2.726253E-1,7.435404E-1,2.0694947E-2,-6.313424E-1,9.18263E-2,-1.2667096E-1,-5.5428344E-1,-1.6412845E-1,9.157644E-1,-1.9724643E-1,3.483826E-1,-3.189147E-1,1.7278473E0,-1.2833798E0,6.194377E-1,-8.007498E-1,6.352307E-1,-5.511032E-1,2.6367852E-1,-1.9941728E0,-1.1108369E0,4.50744E-1,1.3977213E-1,3.402045E-1,6.549495E-1,1.1549393E-2,-2.8754088E-1,2.419705E0,9.8753744E-1,3.2253325E-1,1.4927337E-1,3.4974855E-1,1.2333617E0,2.2544245E-1,1.0155729E0,-1.0327578E0,2.8787131E0,-1.9409169E0,-9.330922E-1,7.824892E-1,-1.0425177E0,1.0119987E-2,5.989656E-1,-1.4632196E0,4.6776035E-1,8.554516E-2,-3.0106897E0,1.0659419E0,3.672836E-2,-5.2289154E-2,-2.4331987E-1,-5.4406594E-2,6.791554E-1,-2.186878E-1,6.690531E-1,2.3206086E0,2.555464E-1,-9.5188165E-1,2.4239209E0,1.4755315E0,-3.3470964E0,-7.323957E-2,-2.0799546E-1,-1.0384428E-1,-1.6019703E-1,-4.7017734E-2,8.910461E-3,2.637121E-2,-1.4918296E-1,-1.8461643E-1,-2.376111E-1,-7.701401E-2,-2.261077E-1,-2.2003725E-1,-1.6362391E-1,-2.3793267E-1,-2.7880198E-1,1.0028429E-1,-1.1573621E-1,2.286067E-1,-3.658266E-2,-6.988832E-2,5.1232647E-2,2.2702908E-2,2.1393438E-1,4.626086E-2,-7.0622064E-2,-1.8582068E-1,-1.1862211E-2,7.261174E-2,-1.0473128E-1,-3.406114E-1,-9.6482374E-2,7.839051E-2,2.874617E-1,-5.7034064E-2,2.0028149E-1,3.4832963E-1,-9.3102455E-5,-2.5273964E-1,2.1369734E-1,8.372105E-2,1.7109013E-1,9.862725E-2,-1.8901484E-2,-4.3998342E-2,-1.6812971E-1,-3.5320576E-2,4.9537033E-2,-1.6862741E-1,4.6365694E-4,-1.3469517E-1,-2.1093869E-1,-2.4509834E-1,-9.868498E-2,-3.4694073E-1,-1.7980695E-1,-2.424035E-2,-2.8286585E-1,3.2782834E-3,-9.116828E-2,2.7440482E-1,4.321364E-2,-1.8908542E-1,7.3080406E-2,6.397237E-2,-1.5071532E-1,-4.4446565E-2,1.688659E-1,4.7677066E-2,5.152139E-1,-1.0919523E-2,3.1748554E-1,5.1477116E-1,1.8362175E-1,7.462819E-1,2.0011686E-1,4.3763247E-1,8.0556405E-1,-1.2831216E-1,3.900156E-1,-2.0814672E-1,1.09966375E-1,8.954571E-1,2.995381E-1,2.479173E-1,1.0325172E-1,3.97678E-1,1.064297E0,4.7779033E-1,6.486581E-2,-9.938266E-2,1.1507509E-1,-2.9142782E-1,-5.789094E-2,4.277875E-1,-2.3234315E-1,6.7909336E-1,-9.42595E-3,1.2413458E-1,-1.5893087E-1,5.6239724E-2,-6.512048E-2,1.5445775E-1,7.00638E-1,7.4709706E-2,-1.2446646E-1,1.1349219E-1,5.4210776E-1,3.8633853E-1,1.8581954E-1,8.5146956E-2,3.188745E-1,7.720375E-3,3.417099E-1,-1.3680442E-1,1.20968364E-1,1.4564462E-1,4.517998E-4,-5.344582E-3,1.5709345E-1,1.44581795E-2,-1.0493851E-2,8.051373E-1,1.7182995E-1,1.3490387E0,7.6285243E-1,4.405137E-1,-7.393726E-2,9.457866E-1,5.7725877E-1,7.23485E-1,2.0585938E-1,-1.6656679E-1,2.609483E-1,8.504527E-1,-1.4596125E-1,3.1393918E-1,1.4745237E0],"split_indices":[3,3,2,2,8,8,3,3,1,3,3,3,3,1,8,8,1,1,0,1,1,1,12,2,1,1,10,12,8,3,3,5,0,3,8,0,0,8,5,3,2,12,5,2,2,1,2,8,0,8,1,1,3,3,1,2,1,8,12,5,5,4,0,3,13,3,2,3,1,1,2,2,3,11,8,5,1,3,2,1,2,13,2,5,3,12,5,0,5,3,2,2,1,10,0,2,5,1,5,2,10,11,4,10,0,0,10,0,8,10,8,5,0,0,0,1,8,5,2,2,1,1,8,5,2,10,8,12,10,5,2,10,2,13,5,2,8,0,0,2,3,0,0,1,2,2,2,8,2,1,2,5,0,0,2,2,3,13,0,8,13,8,1,1,0,8,2,1,2,4,1,5,5,0,0,0,5,1,7,10,8,0,1,0,0,10,3,8,10,4,0,0,0,0,12,0,5,2,1,10,12,1,10,0,0,0,0,0,0,0,0,0,0,0,0,0,0,0,0,0,0,0,0,0,0,0,0,0,0,0,0,0,0,0,0,0,0,0,0,0,0,0,0,0,0,0,0,0,0,0,0,0,0,0,0,0,0,0,0,0,0,0,0,0,0,0,0,0,0,0,0,0,0,0,0,0,0,0,0,0,0,0,0,0,0,0,0,0,0,0,0,0,0,0,0,0,0,0,0,0,0,0,0,0,0,0,0,0,0,0,0,0,0,0,0,0,0,0,0,0,0,0,0,0,0,0,0,0,0,0,0,0,0,0,0,0,0,0,0,0,0],"split_type":[0,0,0,0,0,0,0,0,0,0,0,0,0,0,0,0,0,0,0,0,0,0,0,0,0,0,0,0,0,0,0,0,0,0,0,0,0,0,0,0,0,0,0,0,0,0,0,0,0,0,0,0,0,0,0,0,0,0,0,0,0,0,0,0,0,0,0,0,0,0,0,0,0,0,0,0,0,0,0,0,0,0,0,0,0,0,0,0,0,0,0,0,0,0,0,0,0,0,0,0,0,0,0,0,0,0,0,0,0,0,0,0,0,0,0,0,0,0,0,0,0,0,0,0,0,0,0,0,0,0,0,0,0,0,0,0,0,0,0,0,0,0,0,0,0,0,0,0,0,0,0,0,0,0,0,0,0,0,0,0,0,0,0,0,0,0,0,0,0,0,0,0,0,0,0,0,0,0,0,0,0,0,0,0,0,0,0,0,0,0,0,0,0,0,0,0,0,0,0,0,0,0,0,0,0,0,0,0,0,0,0,0,0,0,0,0,0,0,0,0,0,0,0,0,0,0,0,0,0,0,0,0,0,0,0,0,0,0,0,0,0,0,0,0,0,0,0,0,0,0,0,0,0,0,0,0,0,0,0,0,0,0,0,0,0,0,0,0,0,0,0,0,0,0,0,0,0,0,0,0,0,0,0,0,0,0,0,0,0,0,0,0,0,0,0,0,0,0,0,0,0,0,0,0,0,0,0,0,0,0,0,0,0,0,0,0,0,0,0,0,0,0,0,0,0,0,0,0,0,0,0,0,0,0,0,0,0,0,0,0,0],"sum_hessian":[6.173E3,4.703E3,1.47E3,2.64E3,2.063E3,9.33E2,5.37E2,2.637E3,3E0,8.48E2,1.215E3,3.06E2,6.27E2,2.04E2,3.33E2,4.12E2,2.225E3,2E0,1E0,5.57E2,2.91E2,7.21E2,4.94E2,2.86E2,2E1,5.9E2,3.7E1,1.42E2,6.2E1,1.83E2,1.5E2,2.42E2,1.7E2,3.62E2,1.863E3,1E0,1E0,2.57E2,3E2,1.41E2,1.5E2,2.79E2,4.42E2,4.12E2,8.2E1,1.37E2,1.49E2,1.9E1,1E0,4.78E2,1.12E2,1.8E1,1.9E1,8.1E1,6.1E1,5.7E1,5E0,6.8E1,1.15E2,1.28E2,2.2E1,1.68E2,7.4E1,2.23E2,1.39E2,5.87E2,1.276E3,1.09E2,1.48E2,2.42E2,5.8E1,6.9E1,7.2E1,1.29E2,2.1E1,2.7E2,9E0,3.03E2,1.39E2,2.06E2,2.06E2,5.1E1,3.1E1,3.9E1,9.8E1,1.08E2,4.1E1,8E0,1.1E1,2.08E2,2.7E2,5.9E1,5.3E1,1.7E1,1E0,5E0,1.4E1,6.1E1,2E1,9E0,5.2E1,5.3E1,4E0,3E0,2E0,3.1E1,3.7E1,2.7E1,8.8E1,1.09E2,1.9E1,2E1,2E0,1.67E2,1E0,5.6E1,1.67E2,8.4E1,5.5E1,3.99E2,1.88E2,3.03E2,9.73E2,8.6E1,2.3E1,1.42E2,6E0,2.05E2,3.7E1,3.4E1,2.4E1,3E1,3.9E1,5.4E1,1.8E1,9.7E1,3.2E1,1E0,2E1,1.16E2,1.54E2,2E0,7E0,3.2E1,2.71E2,7.1E1,6.8E1,1.5E1,1.91E2,1.17E2,8.9E1,5E1,1E0,2.7E1,4E0,3.2E1,7E0,9.3E1,5E0,4.7E1,6.1E1,3.7E1,4E0,1E1,1E0,1.84E2,2.4E1,7.3E1,1.97E2,5.4E1,5E0,7E0,4.6E1,1E0,1.6E1,2E0,3E0,1.2E1,2E0,4.2E1,1.9E1,1.7E1,3E0,1E0,8E0,4.1E1,1.1E1,1.3E1,4E1,3E0,1E0,1E0,2E0,1E0,3.6E1,1E0,8.7E1,1.9E1,9E1,1.3E1,6E0,2E0,1.8E1,3E0,5.3E1,7.6E1,9.1E1,4.1E1,4.3E1,1E1,4.5E1,2.89E2,1.1E2,1.25E2,6.3E1,2.4E2,6.3E1,5.59E2,4.14E2,8.5E1,1E0,2.2E1,1E0,8E0,1.34E2,1E0,5E0,1.92E2,1.3E1,9E0,2.8E1,2.1E1,1.3E1,1.3E1,1.1E1,6E0,2.4E1,1.8E1,2.1E1,5.3E1,1E0,1E0,1.7E1,1.7E1,8E1,1.4E1,1.8E1,1.04E2,1.2E1,7E1,8.4E1,1.1E1,2.1E1,1.37E2,1.34E2,4.5E1,2.6E1,6.1E1,7E0,2E0,1.3E1,1.24E2,6.7E1,4.8E1,6.9E1,2.7E1,6.2E1,8E0,4.2E1,2E0,2E0,1E0,3.1E1,3E0,4E0,7E0,8.6E1,4.4E1,3E0,5.1E1,1E1,1E0,3.6E1,1E0,3E0,8E0,2E0,5.2E1,1.32E2,1.9E1,5E0,2.1E1,5.2E1,9.3E1,1.04E2,5.3E1,1E0,1E0,4E0,6E0,1E0,2.1E1,2.5E1,1E0,2E0,2E0,1E1,1E0,1E0,2E0,4E1,8E0,1.1E1,1E0,2E0,6E0,3.5E1,3E0,8E0,7E0,6E0,1E0,3.9E1,1E0,2E0,3.4E1,2E0,7.7E1,1E1,1.5E1,4E0,6.2E1,2.8E1,4E0,9E0,5E0,1E0,1E0,1E0,1E0,1.7E1],"tree_param":{"num_deleted":"0","num_feature":"14","num_nodes":"341","size_leaf_vector":"1"}},{"base_weights":[1.630019E-2,-1.6210773E0,1.3504448E1,-3.7348132E0,1.8889965E0,8.5319605E0,1.8556318E1,-4.6967673E0,-2.3006585E0,3.3622534E0,3.2452926E-1,4.890453E0,1.164639E1,1.4987515E1,2.4626244E1,-4.727437E0,1.7887764E1,-6.398271E-1,-3.2170324E0,1.3849685E0,6.0392246E0,-9.2822206E-1,1.2882912E0,3.4761717E0,1.4475184E1,8.935022E0,1.9468369E1,1.7965975E1,7.5398297E0,2.514465E1,-4.1459975E0,-5.8737516E0,-4.437462E0,1.4747839E0,-1.3320166E-1,-2.502791E0,-8.561514E-2,-2.675913E0,-4.21759E0,2.302893E0,4.0715247E-1,4.187247E0,8.930195E0,-4.637771E-1,-3.5862865E0,-1.240185E0,2.0853188E0,2.994203E-1,5.490821E0,2.3235258E1,7.9708943E0,1.4624187E1,7.4706755E0,2.0913963E1,-9.3886733E-1,1.4739843E1,2.1166967E1,9.407228E0,-1.9733099E0,1.6453892E1,2.6631355E1,-4.5761444E-2,-2.6518837E-1,-5.428939E0,-3.3033237E-1,-3.7558453E0,-4.7829623E0,-1.7446423E0,-2.848934E0,1.78128E-1,-1.370553E0,-2.1735587E0,-3.4784882E0,-4.434837E0,-1.1621662E0,1.1509814E0,2.8761234E0,7.979903E-1,-1.0404239E0,3.0683966E0,5.177793E0,1.09739485E1,7.191554E0,-7.507797E-1,2.1705651E0,-1.9382119E0,-4.781094E0,2.2245684E-1,-4.336734E0,4.287473E-1,3.3910065E0,-4.9218783E0,1.4279761E0,7.8243685E0,9.518375E-1,1.262546E0,2.2814135E-1,1.572847E1,4.0707746E0,9.498876E0,1.8091177E1,6.6586614E0,1.5006154E1,1.5826854E0,1.831688E1,-1.5731508E-1,1.420859E-1,1.513145E1,3.7122576E0,2.1865551E1,3.6500018E0,1.58202305E1,7.3008075E0,-4.0087786E0,6.355041E-2,4.5757575E0,2.121768E1,2.8006292E1,2.1110462E1,-5.449675E0,-4.187584E-4,-3.5929987E0,-4.432185E0,-4.0700903E0,-5.0694876E0,-1.493699E-1,-1.2559457E0,-3.198981E0,-2.0068784E0,9.40966E-1,-1.00925036E-1,-2.8401718E0,-7.472912E-1,-2.696698E-1,-2.4378037E0,-3.872028E0,-1.107243E0,-1.5054423E0,-4.589148E0,2.8134698E-1,-2.1224236E0,1.245079E0,-1.2630475E-1,4.1142097E0,2.0572295E0,3.7577584E-1,2.7392719E0,-5.4090434E-1,-3.1599333E0,2.6266851E0,6.9436803E0,3.0837371E0,5.7859554E0,9.524574E0,1.7022858E1,8.300951E0,2.9817781E0,-3.8060835E-1,-2.7794027E0,-1.9377872E-1,2.6267893E0,-3.4061506E0,7.7351934E-1,-5.122166E0,3.958899E-2,-2.9091125E0,1.1631701E0,-5.389046E-1,-5.297921E0,1.0958259E0,-4.7757616E0,5.2725E0,1.0468674E0,-2.1806068E0,-3.192979E-1,-1.4396757E-1,5.0312734E0,9.344777E0,2.0764945E0,-3.1854305E-1,2.3234396E0,8.9386857E-1,2.3204422E-1,6.0410604E0,-3.9491928E-1,5.672219E-1,2.510252E0,9.805728E-1,2.736456E-1,7.4712415E0,1.8240896E0,8.2020587E-1,6.0611963E-2,-1.7903888E-1,1.9024612E1,9.728574E0,1.621197E1,3.9121115E-1,-2.6647186E-1,4.992278E0,2.2546558E1,3.8548052E-1,-2.132206E-1,3.429473E0,2.1586926E1,1.1679773E1,3.7123823E0,-2.970216E-1,5.469033E-1,5.971226E0,-9.492636E-2,4.249153E0,2.5459175E1,2.8449696E1,-1.4231223E-1,-2.0742618E-1,2.238905E1,-2.3532481E-1,-2.86202E-1,-1.5183334E-1,-1.9310305E-1,-2.3832369E-1,-1.4847714E-1,-2.1703365E-1,-1.4663096E-1,-2.3598003E-1,-2.7314994E-1,-1.2873518E-1,-5.314503E-2,2.4556636E-3,-1.631816E-1,3.69925E-2,-1.07607625E-1,3.29692E-2,1.9921987E-1,2.8356751E-3,-9.934903E-2,-1.7955002E-1,-3.0743813E-2,-1.2824184E-1,-9.337137E-3,-5.714444E-2,1.6750969E-1,-2.189118E-1,-1.01505935E-1,-1.5751491E-1,-3.292821E-1,-1.4410083E-1,6.0730975E-2,3.9468512E-2,-1.949463E-1,-2.5023124E-1,-1.737821E-1,-5.547979E-2,-2.4694942E-1,7.685129E-2,2.4929618E-2,2.5000906E-1,1.310154E-1,1.1755692E-1,-3.7309933E-2,4.781223E-2,-1.2904604E-2,-6.395184E-2,1.8611877E-1,-5.8870535E-2,4.3812554E-2,-1.8905441E-1,-4.8617538E-2,8.16427E-2,1.6759975E-1,7.0780176E-1,1.6821854E-1,1.6360235E-1,-8.297002E-2,2.9955894E-1,1.1845776E-1,2.5573063E-1,5.2049255E-1,9.790344E-1,5.5862445E-2,3.6898848E-1,7.2205037E-1,-1.651151E-1,2.2808509E-1,-4.1819867E-2,4.2569768E-2,-1.8570502E-1,3.2288194E-2,1.5930462E-1,-6.831237E-2,9.7993486E-2,-2.0763667E-1,-7.1720995E-2,8.903995E-2,-2.0040894E-2,-2.6246202E-1,-9.8836005E-2,-2.8419515E-1,-3.0086343E-3,2.0009182E-1,-1.1125135E-1,4.780073E-2,-2.847184E-1,4.1448165E-2,1.2658967E-1,-9.719244E-3,-2.691592E-1,1.9950259E-1,3.2051736E-1,3.6799785E-2,1.1409187E-2,1.8257906E-1,6.748324E-2,-1.7002955E-1,2.5702462E-1,-6.356051E-2,7.7208734E-1,1.5213206E-1,-2.5027436E-1,5.073651E-1,4.2800418E-1,-3.622953E-2,-1.5548567E-1,1.5836583E-1,1.0608486E-1,5.279823E-1,5.4575235E-2,-1.2135478E-1,-2.4969554E-2,1.839965E-1,3.2687476E-1,5.7586956E-1,2.4931405E-1,-9.806933E-2,9.822801E-1,2.8226027E-1,5.2767944E-1,2.4106935E-1,9.9341565E-1,7.2352093E-1,-2.7062226E-2,7.0768357E-3,2.8985828E-1,6.444039E-2,1.2947036E0,9.896092E-1,2.842047E-1,-1.3972528E-1,2.0653044E-1,1.1745299E0,6.76379E-2,7.266862E-1,2.41679E-1,-1.5510003E-1,-9.197962E-2,1.3299738E-1,-5.363939E-2,3.7972933E-1,5.7507347E-2,2.4493866E-1,1.4137716E0,-6.758504E-2,1.451949E0,5.291412E-1,2.631004E-2,1.1679449E0],"categories":[],"categories_nodes":[],"categories_segments":[],"categories_sizes":[],"default_left":[0,0,0,0,0,0,0,0,0,0,0,0,0,0,0,0,0,0,0,0,0,0,0,0,0,0,0,0,0,0,0,0,0,0,0,0,0,0,0,0,0,0,0,0,0,0,0,0,0,0,0,0,0,0,0,0,0,0,0,0,0,0,0,0,0,0,0,0,0,0,0,0,0,0,0,0,0,0,0,0,0,0,0,0,0,0,0,0,0,0,0,0,0,0,0,0,0,0,0,0,0,0,0,0,0,0,0,0,0,0,0,0,0,0,0,0,0,0,0,0,0,0,0,0,0,0,0,0,0,0,0,0,0,0,0,0,0,0,0,0,0,0,0,0,0,0,0,0,0,0,0,0,0,0,0,0,0,0,0,0,0,0,0,0,0,0,0,0,0,0,0,0,0,0,0,0,0,0,0,0,0,0,0,0,0,0,0,0,0,0,0,0,0,0,0,0,0,0,0,0,0,0,0,0,0,0,0,0,0,0,0,0,0,0,0,0,0,0,0,0,0,0,0,0,0,0,0,0,0,0,0,0,0,0,0,0,0,0,0,0,0,0,0,0,0,0,0,0,0,0,0,0,0,0,0,0,0,0,0,0,0,0,0,0,0,0,0,0,0,0,0,0,0,0,0,0,0,0,0,0,0,0,0,0,0,0,0,0,0,0,0,0,0,0,0,0,0,0,0,0,0,0,0,0,0,0,0,0,0,0,0,0,0,0,0,0,0,0,0,0,0,0,0,0,0,0,0,0,0,0,0,0,0,0,0,0,0,0,0,0,0,0,0,0,0,0,0,0,0,0,0,0,0,0,0,0,0,0,0,0,0,0,0,0,0,0,0],"id":4,"left_children":[1,3,5,7,9,11,13,15,17,19,21,23,25,27,29,31,33,35,37,39,41,43,45,47,49,51,53,55,57,59,61,63,65,-1,-1,67,69,71,73,75,77,79,81,83,85,87,89,91,93,95,97,99,101,103,105,107,109,111,113,115,117,-1,-1,119,-1,121,123,125,127,129,131,133,135,137,139,141,143,145,147,149,151,153,155,157,159,161,163,165,167,169,171,173,175,177,179,-1,-1,181,183,185,187,189,191,-1,193,-1,-1,195,197,199,201,203,205,207,-1,209,211,213,215,217,-1,219,221,223,225,-1,227,229,231,233,235,237,239,241,243,245,247,249,251,-1,253,255,-1,257,259,261,263,265,267,269,271,273,275,277,279,281,283,285,287,-1,289,291,293,295,-1,297,299,301,303,305,307,309,311,313,-1,315,317,319,321,-1,323,-1,-1,325,327,-1,329,-1,-1,331,333,-1,-1,-1,335,337,339,-1,341,343,345,-1,-1,347,349,351,353,-1,355,357,-1,359,361,363,-1,-1,365,-1,-1,-1,-1,-1,-1,-1,-1,-1,-1,-1,-1,-1,-1,-1,-1,-1,-1,-1,-1,-1,-1,-1,-1,-1,-1,-1,-1,-1,-1,-1,-1,-1,-1,-1,-1,-1,-1,-1,-1,-1,-1,-1,-1,-1,-1,-1,-1,-1,-1,-1,-1,-1,-1,-1,-1,-1,-1,-1,-1,-1,-1,-1,-1,-1,-1,-1,-1,-1,-1,-1,-1,-1,-1,-1,-1,-1,-1,-1,-1,-1,-1,-1,-1,-1,-1,-1,-1,-1,-1,-1,-1,-1,-1,-1,-1,-1,-1,-1,-1,-1,-1,-1,-1,-1,-1,-1,-1,-1,-1,-1,-1,-1,-1,-1,-1,-1,-1,-1,-1,-1,-1,-1,-1,-1,-1,-1,-1,-1,-1,-1,-1,-1,-1,-1,-1,-1,-1,-1,-1,-1,-1,-1,-1,-1,-1,-1,-1,-1,-1],"loss_changes":[1.3648628E5,4.0895203E4,1.6647203E4,4.734992E3,4.7745835E3,3.7877168E3,6.8011406E3,1.5100547E3,2.102787E3,5.63941E3,1.215794E3,2.091452E3,3.685955E3,4.545078E3,1.9090547E3,6.5735547E2,7.942679E2,5.087968E2,4.7112012E2,5.510625E2,2.3879746E3,5.390585E2,1.1492722E3,8.879613E2,9.5435547E2,1.032083E3,1.3766621E3,1.2370273E3,1.1199824E3,1.0993594E3,6.367298E0,9.844629E1,3.694336E2,0E0,0E0,2.468396E1,1.2936258E2,2.2668555E2,2.0128271E2,2.0600806E2,1.6999477E2,2.922124E2,5.464717E2,2.8439722E2,1.1872681E2,6.214573E2,9.3510986E2,3.3111728E2,8.9286694E2,1.8588184E2,3.292942E2,3.0792773E2,5.792783E2,6.195586E2,4.232247E1,2.8066797E2,8.1349414E2,5.869404E2,7.773598E1,1.0346118E3,1.6785938E2,0E0,0E0,2.940332E1,0E0,4.553369E1,2.0159766E2,1.9326538E1,1.59817505E1,6.757548E1,5.7414795E1,1.804563E2,2.0287866E2,1.2418164E2,1.5536713E2,4.0167603E1,2.0546094E2,1.9240504E2,6.60499E1,2.0942493E2,1.6809253E2,5.304668E2,4.3293896E2,2.527592E2,1.1224098E2,1.18073715E2,7.438342E1,2.802992E2,1.5776367E2,6.7182227E2,1.0618174E3,2.6209152E1,2.6127667E2,4.6998608E2,3.1611716E2,0E0,0E0,1.23377075E1,9.0372665E1,1.3919568E2,1.8041748E2,3.8707666E2,1.7294824E2,0E0,6.415381E2,0E0,0E0,2.8012305E2,6.752653E1,6.918008E2,1.6139464E2,7.834126E2,6.0089746E2,6.484884E1,0E0,7.457916E1,8.9942676E2,1.1343516E3,8.6798145E2,2.627832E1,0E0,5.638037E1,3.6695923E1,8.4836914E1,8.050781E1,0E0,4.64616E0,1.1079895E1,1.1567986E1,7.021568E1,6.938709E1,2.953746E1,4.7405685E1,1.460709E2,2.4109448E2,3.5136743E2,1.394863E2,9.095924E1,1.0983057E2,0E0,5.157363E1,2.2116776E1,0E0,9.675293E1,1.0804431E2,7.19952E1,1.7067838E2,4.883922E1,1.2629387E1,8.174774E1,2.879721E2,3.669095E1,6.434082E1,2.0442383E2,5.476975E2,3.2894824E2,2.3348814E2,1.6187227E2,1.6887619E2,0E0,8.251909E1,8.4256195E1,2.701855E1,1.8894714E1,0E0,4.5682755E1,2.5374512E2,2.7333323E1,8.973474E1,3.1730396E2,1.3861926E2,6.869697E2,2.3160236E2,2.612403E1,0E0,2.0311128E2,2.4285275E2,5.5751514E2,2.4229663E2,0E0,1.290572E2,0E0,0E0,1.01565475E2,1.473189E1,0E0,1.591898E1,0E0,0E0,2.5339795E2,2.0130643E2,0E0,0E0,0E0,1.8820312E2,9.844482E0,1.0092676E2,0E0,4.1293478E-1,4.452072E0,1.0526172E2,0E0,0E0,8.60478E1,1.688186E2,5.1084937E2,1.983602E2,0E0,2.0021532E1,7.675725E1,0E0,2.418396E0,8.6879004E2,4.9286328E2,0E0,0E0,4.753916E2,0E0,0E0,0E0,0E0,0E0,0E0,0E0,0E0,0E0,0E0,0E0,0E0,0E0,0E0,0E0,0E0,0E0,0E0,0E0,0E0,0E0,0E0,0E0,0E0,0E0,0E0,0E0,0E0,0E0,0E0,0E0,0E0,0E0,0E0,0E0,0E0,0E0,0E0,0E0,0E0,0E0,0E0,0E0,0E0,0E0,0E0,0E0,0E0,0E0,0E0,0E0,0E0,0E0,0E0,0E0,0E0,0E0,0E0,0E0,0E0,0E0,0E0,0E0,0E0,0E0,0E0,0E0,0E0,0E0,0E0,0E0,0E0,0E0,0E0,0E0,0E0,0E0,0E0,0E0,0E0,0E0,0E0,0E0,0E0,0E0,0E0,0E0,0E0,0E0,0E0,0E0,0E0,0E0,0E0,0E0,0E0,0E0,0E0,0E0,0E0,0E0,0E0,0E0,0E0,0E0,0E0,0E0,0E0,0E0,0E0,0E0,0E0,0E0,0E0,0E0,0E0,0E0,0E0,0E0,0E0,0E0,0E0,0E0,0E0,0E0,0E0,0E0,0E0,0E0,0E0,0E0,0E0,0E0,0E0,0E0,0E0,0E0,0E0,0E0,0E0,0E0,0E0,0E0,0E0,0E0,0E0,0E0,0E0,0E0,0E0],"parents":[2147483647,0,0,1,1,2,2,3,3,4,4,5,5,6,6,7,7,8,8,9,9,10,10,11,11,12,12,13,13,14,14,15,15,16,16,17,17,18,18,19,19,20,20,21,21,22,22,23,23,24,24,25,25,26,26,27,27,28,28,29,29,30,30,31,31,32,32,35,35,36,36,37,37,38,38,39,39,40,40,41,41,42,42,43,43,44,44,45,45,46,46,47,47,48,48,49,49,50,50,51,51,52,52,53,53,54,54,55,55,56,56,57,57,58,58,59,59,60,60,63,63,65,65,66,66,67,67,68,68,69,69,70,70,71,71,72,72,73,73,74,74,75,75,76,76,77,77,78,78,79,79,80,80,81,81,82,82,83,83,84,84,85,85,86,86,87,87,88,88,89,89,90,90,91,91,92,92,93,93,94,94,97,97,98,98,99,99,100,100,101,101,102,102,104,104,107,107,108,108,109,109,110,110,111,111,112,112,113,113,115,115,116,116,117,117,118,118,119,119,121,121,122,122,123,123,124,124,126,126,127,127,128,128,129,129,130,130,131,131,132,132,133,133,134,134,135,135,136,136,137,137,138,138,140,140,141,141,143,143,144,144,145,145,146,146,147,147,148,148,149,149,150,150,151,151,152,152,153,153,154,154,155,155,156,156,157,157,158,158,160,160,161,161,162,162,163,163,165,165,166,166,167,167,168,168,169,169,170,170,171,171,172,172,173,173,175,175,176,176,177,177,178,178,180,180,183,183,184,184,186,186,189,189,190,190,194,194,195,195,196,196,198,198,199,199,200,200,203,203,204,204,205,205,206,206,208,208,209,209,211,211,212,212,213,213,216,216],"right_children":[2,4,6,8,10,12,14,16,18,20,22,24,26,28,30,32,34,36,38,40,42,44,46,48,50,52,54,56,58,60,62,64,66,-1,-1,68,70,72,74,76,78,80,82,84,86,88,90,92,94,96,98,100,102,104,106,108,110,112,114,116,118,-1,-1,120,-1,122,124,126,128,130,132,134,136,138,140,142,144,146,148,150,152,154,156,158,160,162,164,166,168,170,172,174,176,178,180,-1,-1,182,184,186,188,190,192,-1,194,-1,-1,196,198,200,202,204,206,208,-1,210,212,214,216,218,-1,220,222,224,226,-1,228,230,232,234,236,238,240,242,244,246,248,250,252,-1,254,256,-1,258,260,262,264,266,268,270,272,274,276,278,280,282,284,286,288,-1,290,292,294,296,-1,298,300,302,304,306,308,310,312,314,-1,316,318,320,322,-1,324,-1,-1,326,328,-1,330,-1,-1,332,334,-1,-1,-1,336,338,340,-1,342,344,346,-1,-1,348,350,352,354,-1,356,358,-1,360,362,364,-1,-1,366,-1,-1,-1,-1,-1,-1,-1,-1,-1,-1,-1,-1,-1,-1,-1,-1,-1,-1,-1,-1,-1,-1,-1,-1,-1,-1,-1,-1,-1,-1,-1,-1,-1,-1,-1,-1,-1,-1,-1,-1,-1,-1,-1,-1,-1,-1,-1,-1,-1,-1,-1,-1,-1,-1,-1,-1,-1,-1,-1,-1,-1,-1,-1,-1,-1,-1,-1,-1,-1,-1,-1,-1,-1,-1,-1,-1,-1,-1,-1,-1,-1,-1,-1,-1,-1,-1,-1,-1,-1,-1,-1,-1,-1,-1,-1,-1,-1,-1,-1,-1,-1,-1,-1,-1,-1,-1,-1,-1,-1,-1,-1,-1,-1,-1,-1,-1,-1,-1,-1,-1,-1,-1,-1,-1,-1,-1,-1,-1,-1,-1,-1,-1,-1,-1,-1,-1,-1,-1,-1,-1,-1,-1,-1,-1,-1,-1,-1,-1,-1,-1],"split_conditions":[1.0142803E0,-1.4893991E-1,1.0046786E0,-5.3668E-1,-8.5013516E-2,-7.414685E-2,2.9529808E0,2.6229167E0,-3.9700112E-1,1.2829201E-1,2.3880018E-1,3.3279617E0,2.3713706E0,4.6173078E-1,2.5661864E0,-8.094592E-1,-7.3055005E-1,-5.54256E-1,7.1941924E-1,-4.8876217E-1,6.2654024E-1,1.0155729E0,7.773289E-2,-1.4100658E0,-9.5188165E-1,-5.254666E-1,1.4924846E0,1.3417108E0,1.9649518E0,-1.3959383E0,3.922331E0,6.690531E-1,-3.602967E-1,1.4747839E0,-1.3320166E-1,-7.8239757E-1,-1.7819555E-1,4.9579316E-1,-7.394446E-2,-2.7136576E-1,4.3267024E-1,2.3880018E-1,-6.012341E-1,1.4966704E0,6.2642187E-1,5.4232484E-1,-2.8754088E-1,-1.5597913E0,8.4231293E-1,-4.357312E-1,1.16860814E-1,8.987166E-1,1.5299811E0,-1.7565855E0,3.6289089E0,1.0155729E0,2.528075E0,1.4927337E-1,1.2328781E0,1.4788876E0,5.8461595E-1,-4.5761444E-2,-2.6518837E-1,2.4475918E0,-3.3033237E-1,8.801987E-1,-1.265597E0,-6.589857E-1,-4.78519E-1,-8.558064E-1,-5.4381883E-1,-1.265597E0,9.18263E-2,-2.3183121E-1,-6.6098046E-1,1.3620926E0,-7.8239757E-1,2.3880018E-1,6.91503E-1,6.380964E-1,-1.7565855E0,-5.935632E-1,1.2200766E0,1.5762334E0,-2.7415645E0,1.3620926E0,3.2300317E-1,-1.1470447E0,-7.394446E-2,6.849811E-1,7.6773584E-1,1.0161192E0,4.2065716E-1,4.724678E-1,-1.1055514E0,1.262546E0,2.2814135E-1,-1.2833798E0,-9.158678E-1,7.699112E-1,9.157644E-1,8.4231293E-1,7.512802E0,1.5826854E0,-1.063546E0,-1.5731508E-1,1.420859E-1,6.380964E-1,-1.5864555E0,-1.3938733E0,-1.0782455E0,1.2663114E0,1.5463548E0,2.8787131E0,6.355041E-2,3.340721E0,-7.81465E-2,9.647851E0,-4.562574E-1,-7.2734094E-1,-4.187584E-4,-7.089887E-1,4.50744E-1,4.50744E-1,4.724678E-1,-1.493699E-1,-1.1010013E0,-2.449625E0,-9.5188165E-1,1.7278473E0,1.0155729E0,-3.4280995E-1,1.4927337E-1,4.2065716E-1,-8.8030213E-1,-8.943115E-3,-3.4961203E-1,2.0694947E-2,1.925957E-1,2.8134698E-1,4.2065716E-1,-6.539321E-1,-1.2630475E-1,8.14995E-1,1.6330055E0,-2.8688785E-1,-1.1707551E0,1.7988403E-1,1.2328781E0,1.0165339E0,1.4852914E0,2.0953593E0,2.8787131E0,-2.3986537E-2,1.0155729E0,4.50744E-1,-7.81465E-2,-5.04364E-2,2.5830117E-1,-1.9377872E-1,8.4231293E-1,-9.8454565E-1,-7.2044164E-1,1.5356524E-1,3.958899E-2,4.3267024E-1,-1.2084357E0,6.668047E-1,6.49075E-1,-1.2241037E0,-8.565917E-1,4.2065716E-1,5.022573E-1,-1.5977823E0,-3.192979E-1,1.19846E0,-1.2084357E0,-1.3900768E0,1.5958905E0,-3.1854305E-1,-1.2451204E0,8.9386857E-1,2.3204422E-1,6.690531E-1,2.8787131E0,5.672219E-1,-4.539999E-1,9.805728E-1,2.736456E-1,-9.644386E-1,5.4232484E-1,8.2020587E-1,6.0611963E-2,-1.7903888E-1,1.4755315E0,1.2328781E0,-1.0715156E0,3.9121115E-1,1.7897605E0,1.3781182E0,-7.2044164E-1,3.8548052E-1,-2.132206E-1,1.4966704E0,-2.1031053E0,-1.5305009E0,4.6555284E-1,-2.970216E-1,2.3713706E0,-1.0554899E0,-9.492636E-2,-1.9298455E0,4.697811E0,1.3073066E0,-1.4231223E-1,-2.0742618E-1,-3.602967E-1,-2.3532481E-1,-2.86202E-1,-1.5183334E-1,-1.9310305E-1,-2.3832369E-1,-1.4847714E-1,-2.1703365E-1,-1.4663096E-1,-2.3598003E-1,-2.7314994E-1,-1.2873518E-1,-5.314503E-2,2.4556636E-3,-1.631816E-1,3.69925E-2,-1.07607625E-1,3.29692E-2,1.9921987E-1,2.8356751E-3,-9.934903E-2,-1.7955002E-1,-3.0743813E-2,-1.2824184E-1,-9.337137E-3,-5.714444E-2,1.6750969E-1,-2.189118E-1,-1.01505935E-1,-1.5751491E-1,-3.292821E-1,-1.4410083E-1,6.0730975E-2,3.9468512E-2,-1.949463E-1,-2.5023124E-1,-1.737821E-1,-5.547979E-2,-2.4694942E-1,7.685129E-2,2.4929618E-2,2.5000906E-1,1.310154E-1,1.1755692E-1,-3.7309933E-2,4.781223E-2,-1.2904604E-2,-6.395184E-2,1.8611877E-1,-5.8870535E-2,4.3812554E-2,-1.8905441E-1,-4.8617538E-2,8.16427E-2,1.6759975E-1,7.0780176E-1,1.6821854E-1,1.6360235E-1,-8.297002E-2,2.9955894E-1,1.1845776E-1,2.5573063E-1,5.2049255E-1,9.790344E-1,5.5862445E-2,3.6898848E-1,7.2205037E-1,-1.651151E-1,2.2808509E-1,-4.1819867E-2,4.2569768E-2,-1.8570502E-1,3.2288194E-2,1.5930462E-1,-6.831237E-2,9.7993486E-2,-2.0763667E-1,-7.1720995E-2,8.903995E-2,-2.0040894E-2,-2.6246202E-1,-9.8836005E-2,-2.8419515E-1,-3.0086343E-3,2.0009182E-1,-1.1125135E-1,4.780073E-2,-2.847184E-1,4.1448165E-2,1.2658967E-1,-9.719244E-3,-2.691592E-1,1.9950259E-1,3.2051736E-1,3.6799785E-2,1.1409187E-2,1.8257906E-1,6.748324E-2,-1.7002955E-1,2.5702462E-1,-6.356051E-2,7.7208734E-1,1.5213206E-1,-2.5027436E-1,5.073651E-1,4.2800418E-1,-3.622953E-2,-1.5548567E-1,1.5836583E-1,1.0608486E-1,5.279823E-1,5.4575235E-2,-1.2135478E-1,-2.4969554E-2,1.839965E-1,3.2687476E-1,5.7586956E-1,2.4931405E-1,-9.806933E-2,9.822801E-1,2.8226027E-1,5.2767944E-1,2.4106935E-1,9.9341565E-1,7.2352093E-1,-2.7062226E-2,7.0768357E-3,2.8985828E-1,6.444039E-2,1.2947036E0,9.896092E-1,2.842047E-1,-1.3972528E-1,2.0653044E-1,1.1745299E0,6.76379E-2,7.266862E-1,2.41679E-1,-1.5510003E-1,-9.197962E-2,1.3299738E-1,-5.363939E-2,3.7972933E-1,5.7507347E-2,2.4493866E-1,1.4137716E0,-6.758504E-2,1.451949E0,5.291412E-1,2.631004E-2,1.1679449E0],"split_indices":[0,0,2,0,13,2,0,2,13,3,0,3,0,12,12,3,0,3,12,13,0,5,3,5,10,13,12,3,2,10,0,5,13,0,0,13,12,5,3,3,0,0,12,2,1,2,2,1,5,2,13,3,13,5,3,5,2,5,11,2,12,0,0,13,0,2,2,3,0,13,13,2,2,13,2,5,13,0,12,3,5,1,9,12,10,5,2,2,3,1,12,13,10,12,2,0,0,2,2,3,2,5,13,0,5,0,0,3,9,1,9,0,3,7,0,0,11,3,9,13,0,13,1,1,12,0,9,5,10,2,5,0,5,10,2,2,3,2,2,0,10,13,0,2,2,13,2,12,11,2,1,2,7,5,5,1,11,2,3,0,5,12,1,13,0,0,1,2,13,2,2,10,13,10,0,3,1,2,0,0,9,0,0,5,7,0,10,0,0,1,2,0,0,0,1,11,12,0,0,2,1,0,0,2,5,10,13,0,0,9,0,5,0,9,0,0,13,0,0,0,0,0,0,0,0,0,0,0,0,0,0,0,0,0,0,0,0,0,0,0,0,0,0,0,0,0,0,0,0,0,0,0,0,0,0,0,0,0,0,0,0,0,0,0,0,0,0,0,0,0,0,0,0,0,0,0,0,0,0,0,0,0,0,0,0,0,0,0,0,0,0,0,0,0,0,0,0,0,0,0,0,0,0,0,0,0,0,0,0,0,0,0,0,0,0,0,0,0,0,0,0,0,0,0,0,0,0,0,0,0,0,0,0,0,0,0,0,0,0,0,0,0,0,0,0,0,0,0,0,0,0,0,0,0,0,0,0,0,0,0,0,0,0,0,0,0,0],"split_type":[0,0,0,0,0,0,0,0,0,0,0,0,0,0,0,0,0,0,0,0,0,0,0,0,0,0,0,0,0,0,0,0,0,0,0,0,0,0,0,0,0,0,0,0,0,0,0,0,0,0,0,0,0,0,0,0,0,0,0,0,0,0,0,0,0,0,0,0,0,0,0,0,0,0,0,0,0,0,0,0,0,0,0,0,0,0,0,0,0,0,0,0,0,0,0,0,0,0,0,0,0,0,0,0,0,0,0,0,0,0,0,0,0,0,0,0,0,0,0,0,0,0,0,0,0,0,0,0,0,0,0,0,0,0,0,0,0,0,0,0,0,0,0,0,0,0,0,0,0,0,0,0,0,0,0,0,0,0,0,0,0,0,0,0,0,0,0,0,0,0,0,0,0,0,0,0,0,0,0,0,0,0,0,0,0,0,0,0,0,0,0,0,0,0,0,0,0,0,0,0,0,0,0,0,0,0,0,0,0,0,0,0,0,0,0,0,0,0,0,0,0,0,0,0,0,0,0,0,0,0,0,0,0,0,0,0,0,0,0,0,0,0,0,0,0,0,0,0,0,0,0,0,0,0,0,0,0,0,0,0,0,0,0,0,0,0,0,0,0,0,0,